{"learner":{"attributes":{"scikit_learn":"{\"_estimator_type\": \"classifier\"}"},"feature_names":["t_depth_LoFreq","t_alt_count_LoFreq","t_ref_count_LoFreq","Tumor_VAF_LoFreq","variant_qual_LoFreq","t_depth_Mutect","t_alt_count_Mutect","t_ref_count_Mutect","Tumor_VAF_Mutect","FILTER_Mutect_feature","FILTER_LoFreq_feature","base_qual","clustered_events","germline","haplotype","map_qual","multiallelic","orientation","position","strand_bias","weak_evidence","Variant_Classification_feature","Reference_Allele_feature","Tumor_Seq_Allele2_feature","5prime_feature","3prime_feature","gnomADg_AF","gnomADg_AF_raw","gnomADg_AF_popmax","gnomADg_AF_afr","gnomADg_AF_amr","gnomADg_AF_eas","gnomADg_AF_fin","gnomADg_AF_nfe","gnomADg_AF_asj","gnomADg_AF_sas","gnomADg_AF_oth"],"feature_types":["float","float","float","float","float","float","float","float","float","int","int","int","int","int","int","int","int","int","int","int","int","int","int","int","int","int","float","float","float","float","float","float","float","float","float","float","float"],"gradient_booster":{"model":{"gbtree_model_param":{"num_parallel_tree":"1","num_trees":"500"},"iteration_indptr":[0,1,2,3,4,5,6,7,8,9,10,11,12,13,14,15,16,17,18,19,20,21,22,23,24,25,26,27,28,29,30,31,32,33,34,35,36,37,38,39,40,41,42,43,44,45,46,47,48,49,50,51,52,53,54,55,56,57,58,59,60,61,62,63,64,65,66,67,68,69,70,71,72,73,74,75,76,77,78,79,80,81,82,83,84,85,86,87,88,89,90,91,92,93,94,95,96,97,98,99,100,101,102,103,104,105,106,107,108,109,110,111,112,113,114,115,116,117,118,119,120,121,122,123,124,125,126,127,128,129,130,131,132,133,134,135,136,137,138,139,140,141,142,143,144,145,146,147,148,149,150,151,152,153,154,155,156,157,158,159,160,161,162,163,164,165,166,167,168,169,170,171,172,173,174,175,176,177,178,179,180,181,182,183,184,185,186,187,188,189,190,191,192,193,194,195,196,197,198,199,200,201,202,203,204,205,206,207,208,209,210,211,212,213,214,215,216,217,218,219,220,221,222,223,224,225,226,227,228,229,230,231,232,233,234,235,236,237,238,239,240,241,242,243,244,245,246,247,248,249,250,251,252,253,254,255,256,257,258,259,260,261,262,263,264,265,266,267,268,269,270,271,272,273,274,275,276,277,278,279,280,281,282,283,284,285,286,287,288,289,290,291,292,293,294,295,296,297,298,299,300,301,302,303,304,305,306,307,308,309,310,311,312,313,314,315,316,317,318,319,320,321,322,323,324,325,326,327,328,329,330,331,332,333,334,335,336,337,338,339,340,341,342,343,344,345,346,347,348,349,350,351,352,353,354,355,356,357,358,359,360,361,362,363,364,365,366,367,368,369,370,371,372,373,374,375,376,377,378,379,380,381,382,383,384,385,386,387,388,389,390,391,392,393,394,395,396,397,398,399,400,401,402,403,404,405,406,407,408,409,410,411,412,413,414,415,416,417,418,419,420,421,422,423,424,425,426,427,428,429,430,431,432,433,434,435,436,437,438,439,440,441,442,443,444,445,446,447,448,449,450,451,452,453,454,455,456,457,458,459,460,461,462,463,464,465,466,467,468,469,470,471,472,473,474,475,476,477,478,479,480,481,482,483,484,485,486,487,488,489,490,491,492,493,494,495,496,497,498,499,500],"tree_info":[0,0,0,0,0,0,0,0,0,0,0,0,0,0,0,0,0,0,0,0,0,0,0,0,0,0,0,0,0,0,0,0,0,0,0,0,0,0,0,0,0,0,0,0,0,0,0,0,0,0,0,0,0,0,0,0,0,0,0,0,0,0,0,0,0,0,0,0,0,0,0,0,0,0,0,0,0,0,0,0,0,0,0,0,0,0,0,0,0,0,0,0,0,0,0,0,0,0,0,0,0,0,0,0,0,0,0,0,0,0,0,0,0,0,0,0,0,0,0,0,0,0,0,0,0,0,0,0,0,0,0,0,0,0,0,0,0,0,0,0,0,0,0,0,0,0,0,0,0,0,0,0,0,0,0,0,0,0,0,0,0,0,0,0,0,0,0,0,0,0,0,0,0,0,0,0,0,0,0,0,0,0,0,0,0,0,0,0,0,0,0,0,0,0,0,0,0,0,0,0,0,0,0,0,0,0,0,0,0,0,0,0,0,0,0,0,0,0,0,0,0,0,0,0,0,0,0,0,0,0,0,0,0,0,0,0,0,0,0,0,0,0,0,0,0,0,0,0,0,0,0,0,0,0,0,0,0,0,0,0,0,0,0,0,0,0,0,0,0,0,0,0,0,0,0,0,0,0,0,0,0,0,0,0,0,0,0,0,0,0,0,0,0,0,0,0,0,0,0,0,0,0,0,0,0,0,0,0,0,0,0,0,0,0,0,0,0,0,0,0,0,0,0,0,0,0,0,0,0,0,0,0,0,0,0,0,0,0,0,0,0,0,0,0,0,0,0,0,0,0,0,0,0,0,0,0,0,0,0,0,0,0,0,0,0,0,0,0,0,0,0,0,0,0,0,0,0,0,0,0,0,0,0,0,0,0,0,0,0,0,0,0,0,0,0,0,0,0,0,0,0,0,0,0,0,0,0,0,0,0,0,0,0,0,0,0,0,0,0,0,0,0,0,0,0,0,0,0,0,0,0,0,0,0,0,0,0,0,0,0,0,0,0,0,0,0,0,0,0,0,0,0,0,0,0,0,0,0,0,0,0,0,0,0,0,0,0,0,0,0,0,0,0,0,0,0,0,0,0,0,0,0,0,0,0,0,0,0,0,0,0,0,0,0,0,0,0,0,0,0],"trees":[{"base_weights":[3.234239E-3,-6.2290925E-1,4.0740913E1,-7.182923E-1,7.4757686E0,3.4876084E-1,2.1264722E0,-8.162229E-1,2.4505365E0,1.8734325E0,1.0554172E1,-8.513839E-1,2.0228612E0,1.172616E0,9.971269E0,1.2326365E-1,1.9585352E-1,4.3615613E0,1.6101555E1,-9.113771E-1,-2.9498884E-1,-2.612383E-1,4.1526556E0,1.4888246E-1,2.7734296E0,8.63335E-1,8.2806253E-1,3.8671996E-2,-3.1351663E-2,5.9130335E0,1.4411033E0,9.261114E-1,2.5182456E-1,-4.589862E-2,9.018484E-2,-3.224755E-2,2.2226853E-2,-3.5428908E-2,5.0858695E-2,2.9252332E-1,2.179213E-2,-1.2788217E-2,1.2030891E-1,5.3993147E-2,3.1159595E-1,8.898948E-2,-2.6106685E-2,7.296436E-2,3.6320075E-1,-2.1559743E-3,1.091359E-1],"categories":[],"categories_nodes":[],"categories_segments":[],"categories_sizes":[],"default_left":[0,0,0,0,0,0,0,0,0,0,0,0,0,0,0,0,0,0,0,0,0,0,0,0,0,0,0,0,0,0,0,0,0,0,0,0,0,0,0,0,0,0,0,0,0,0,0,0,0,0,0],"id":0,"left_children":[1,3,5,7,9,-1,-1,11,13,15,17,19,21,23,25,27,-1,29,31,33,35,37,39,41,43,45,-1,-1,-1,47,49,-1,-1,-1,-1,-1,-1,-1,-1,-1,-1,-1,-1,-1,-1,-1,-1,-1,-1,-1,-1],"loss_changes":[3.123067E4,9.368508E2,8.22625E2,3.7212915E2,2.2381732E2,0E0,0E0,1.17290405E2,3.343468E2,2.1780804E1,2.3549835E2,3.7926086E1,7.142102E1,5.187942E1,2.9157538E2,2.624353E0,0E0,1.6747047E1,2.2500244E1,2.0142761E1,2.9492577E1,5.2485776E0,4.5038513E1,1.9357756E1,6.583882E1,4.985198E0,0E0,0E0,0E0,9.374275E0,3.679202E0,0E0,0E0,0E0,0E0,0E0,0E0,0E0,0E0,0E0,0E0,0E0,0E0,0E0,0E0,0E0,0E0,0E0,0E0,0E0,0E0],"parents":[2147483647,0,0,1,1,2,2,3,3,4,4,7,7,8,8,9,9,10,10,11,11,12,12,13,13,14,14,15,15,17,17,18,18,19,19,20,20,21,21,22,22,23,23,24,24,25,25,29,29,30,30],"right_children":[2,4,6,8,10,-1,-1,12,14,16,18,20,22,24,26,28,-1,30,32,34,36,38,40,42,44,46,-1,-1,-1,48,50,-1,-1,-1,-1,-1,-1,-1,-1,-1,-1,-1,-1,-1,-1,-1,-1,-1,-1,-1,-1],"split_conditions":[1.18E2,7.7E1,3.1948881E-3,1E0,2.9271862E-3,3.4876084E-1,2.1264722E0,6.3E1,2.971E3,3.793E3,1.1E1,1.717E3,2.437E3,1.895E3,3.932584E-3,4.565E3,1.9585352E-1,6.84077E-7,3E0,4.54392E-3,7E0,1.79859E-6,3E0,7E0,5.8892816E-3,3E0,8.2806253E-1,3.8671996E-2,-3.1351663E-2,1E0,8.4E1,9.261114E-1,2.5182456E-1,-4.589862E-2,9.018484E-2,-3.224755E-2,2.2226853E-2,-3.5428908E-2,5.0858695E-2,2.9252332E-1,2.179213E-2,-1.2788217E-2,1.2030891E-1,5.3993147E-2,3.1159595E-1,8.898948E-2,-2.6106685E-2,7.296436E-2,3.6320075E-1,-2.1559743E-3,1.091359E-1],"split_indices":[4,4,8,9,8,0,0,4,7,5,1,7,5,7,8,0,0,26,24,36,1,33,24,1,8,24,0,0,0,23,4,0,0,0,0,0,0,0,0,0,0,0,0,0,0,0,0,0,0,0,0],"split_type":[0,0,0,0,0,0,0,0,0,0,0,0,0,0,0,0,0,0,0,0,0,0,0,0,0,0,0,0,0,0,0,0,0,0,0,0,0,0,0,0,0,0,0,0,0,0,0,0,0,0,0],"sum_hessian":[1.2223707E3,1.2048369E3,1.7533792E1,1.1917126E3,1.3124221E1,1.1285158E0,1.6405275E1,1.1567078E3,3.5004887E1,5.2246103E0,7.8996105E0,1.1432493E3,1.3458596E1,3.0908794E1,4.0960946E0,3.3855474E0,1.8390628E0,4.5767584E0,3.3228521E0,1.0314008E3,1.1184846E2,6.917384E0,6.541212E0,1.9519144E1,1.138965E1,2.1943362E0,1.9017581E0,1.7972659E0,1.5882815E0,2.319727E0,2.2570317E0,2.1734378E0,1.1494143E0,1.0295616E3,1.8390628E0,7.600763E1,3.5840828E1,5.454493E0,1.4628909E0,4.0960946E0,2.4451175E0,1.730391E1,2.2152348E0,8.526564E0,2.8630865E0,1.1494143E0,1.044922E0,1.0240237E0,1.2957033E0,1.0658205E0,1.1912111E0],"tree_param":{"num_deleted":"0","num_feature":"37","num_nodes":"51","size_leaf_vector":"1"}},{"base_weights":[-4.9402375E-2,-6.739566E-1,6.1195354E0,-7.9756075E-1,2.299741E0,-1.3878416E-1,3.326661E-1,-8.99833E-1,2.9451292E-2,-8.238785E-2,4.3228884E0,-6.547535E-1,6.667508E-2,-9.0724695E-1,3.3467335E-1,9.772969E-1,-7.7045727E-1,-6.074119E-1,7.914294E-1,6.3610907E0,-4.4832334E-2,-1.8450141E-1,-4.2021427E-2,-9.6763015E-1,-8.025454E-1,-3.9652657E-2,1.8186285E0,2.881294E-1,3.9471006E0,-8.1853E-1,8.353078E-2,-8.2072777E-1,-1.05216995E-1,-3.6475156E-2,1.5026722E0,3.981063E0,1.066851E1,-3.134982E-2,2.3727093E-2,-4.8899528E-2,-2.3035316E-2,-3.0532083E-2,-4.84655E-2,-3.1833646E-3,1.4300899E-1,-1.5834076E-2,6.233589E-2,1.2645923E-1,4.2715642E-1,-4.2310346E-2,1.5133957E-2,5.2169558E-2,-3.4654982E-2,-4.543773E-2,-9.356562E-4,-2.803425E-2,4.4941958E-2,1.2481981E-1,-6.174197E-3,-3.4017112E-2,2.4249291E-1,1.2379133E-1,5.919773E-1],"categories":[],"categories_nodes":[],"categories_segments":[],"categories_sizes":[],"default_left":[0,0,0,0,0,0,0,0,0,0,0,0,0,0,0,0,0,0,0,0,0,0,0,0,0,0,0,0,0,0,0,0,0,0,0,0,0,0,0,0,0,0,0,0,0,0,0,0,0,0,0,0,0,0,0,0,0,0,0,0,0,0,0],"id":1,"left_children":[1,3,5,7,9,11,-1,13,15,17,19,21,-1,23,25,27,29,31,33,35,-1,37,-1,39,41,-1,43,45,47,49,51,53,55,-1,57,59,61,-1,-1,-1,-1,-1,-1,-1,-1,-1,-1,-1,-1,-1,-1,-1,-1,-1,-1,-1,-1,-1,-1,-1,-1,-1,-1],"loss_changes":[4.921724E3,4.2817548E2,3.9324463E2,9.428058E1,2.2468187E2,8.6285E0,0E0,9.380676E0,9.447312E1,1.0738016E1,2.7366992E2,5.635729E-1,0E0,5.457947E0,1.2572753E1,1.15554054E2,2.8434258E0,1.4704232E0,1.06435375E1,1.4450256E2,0E0,1.3506155E0,0E0,2.8085327E0,1.1138748E1,0E0,6.4078493E0,2.7849361E1,4.7861465E1,2.2448196E0,4.0849795E0,6.9269896E-1,3.009847E0,0E0,1.0554089E1,5.7334778E1,2.7249268E1,0E0,0E0,0E0,0E0,0E0,0E0,0E0,0E0,0E0,0E0,0E0,0E0,0E0,0E0,0E0,0E0,0E0,0E0,0E0,0E0,0E0,0E0,0E0,0E0,0E0,0E0],"parents":[2147483647,0,0,1,1,2,2,3,3,4,4,5,5,7,7,8,8,9,9,10,10,11,11,13,13,14,14,15,15,16,16,17,17,18,18,19,19,21,21,23,23,24,24,26,26,27,27,28,28,29,29,30,30,31,31,32,32,34,34,35,35,36,36],"right_children":[2,4,6,8,10,12,-1,14,16,18,20,22,-1,24,26,28,30,32,34,36,-1,38,-1,40,42,-1,44,46,48,50,52,54,56,-1,58,60,62,-1,-1,-1,-1,-1,-1,-1,-1,-1,-1,-1,-1,-1,-1,-1,-1,-1,-1,-1,-1,-1,-1,-1,-1,-1,-1],"split_conditions":[1.3E1,1E0,2.108222E-3,1.717E3,9E0,2.1645022E-3,3.326661E-1,6.44176E-4,1E0,7E0,4.225352E-2,1.2845215E-3,6.667508E-2,5E0,1.14772E-3,9E0,1.1E1,1.083E3,3.4843206E-3,1.4E1,-4.4832334E-2,1.1627907E-3,-4.2021427E-2,2.845E3,1E0,-3.9652657E-2,5E0,2.0090407E-3,2E0,3.3003301E-3,3.812E3,1.32566E-5,4.6439627E-3,-3.6475156E-2,3E0,3.3830847E-3,4.570384E-3,-3.134982E-2,2.3727093E-2,-4.8899528E-2,-2.3035316E-2,-3.0532083E-2,-4.84655E-2,-3.1833646E-3,1.4300899E-1,-1.5834076E-2,6.233589E-2,1.2645923E-1,4.2715642E-1,-4.2310346E-2,1.5133957E-2,5.2169558E-2,-3.4654982E-2,-4.543773E-2,-9.356562E-4,-2.803425E-2,4.4941958E-2,1.2481981E-1,-6.174197E-3,-3.4017112E-2,2.4249291E-1,1.2379133E-1,5.919773E-1],"split_indices":[1,9,8,7,6,3,0,27,21,1,8,3,0,1,35,1,1,0,3,6,0,3,0,5,21,0,1,3,23,3,5,26,3,0,22,8,8,0,0,0,0,0,0,0,0,0,0,0,0,0,0,0,0,0,0,0,0,0,0,0,0,0,0],"split_type":[0,0,0,0,0,0,0,0,0,0,0,0,0,0,0,0,0,0,0,0,0,0,0,0,0,0,0,0,0,0,0,0,0,0,0,0,0,0,0,0,0,0,0,0,0,0,0,0,0,0,0,0,0,0,0,0,0,0,0,0,0,0,0],"sum_hessian":[1.2753585E3,1.1589183E3,1.1644019E2,1.113372E3,4.554642E1,9.209098E0,1.072311E2,9.9076154E2,1.2261043E2,2.1357998E1,2.4188423E1,7.230438E0,1.9786595E0,9.851105E2,5.6510386E0,5.6014595E1,6.659583E1,1.3532194E1,7.825804E0,1.723826E1,6.9501624E0,2.6110952E0,4.619343E0,6.1955853E2,3.655519E2,3.4754581E0,2.1755805E0,4.6354637E1,9.659957E0,6.3086105E1,3.5097263E0,9.052648E0,4.479547E0,2.4853723E0,5.340432E0,1.2342662E1,4.895599E0,1.5912944E0,1.0198007E0,6.062391E2,1.3319475E1,1.7213263E2,1.934193E2,1.1094501E0,1.0661304E0,2.8832638E1,1.7522001E1,8.567197E0,1.0927598E0,6.1805714E1,1.2803918E0,1.416074E0,2.0936522E0,8.037396E0,1.0152513E0,3.38541E0,1.0941367E0,2.9826314E0,2.3578005E0,1.9731114E0,1.0369551E1,1.0017155E0,3.8938835E0],"tree_param":{"num_deleted":"0","num_feature":"37","num_nodes":"63","size_leaf_vector":"1"}},{"base_weights":[-4.8108887E-2,-7.1154803E-1,4.5655355E0,-8.04557E-1,1.7516701E0,5.222211E-1,4.928645E0,-8.989227E-1,-3.4510195E-2,-3.6214033E-1,3.3254917E0,-2.1350217E-1,1.7891324E0,5.1720676E0,3.476817E0,-9.087071E-1,5.1334673E-1,8.299436E-1,-7.9801047E-1,-5.9016347E-1,5.0855983E-2,5.128125E0,-4.4688337E-2,-5.636452E-1,3.6785838E-1,2.3885133E0,8.684243E-3,8.048602E0,4.795408E0,5.717108E-1,4.2426085E0,-9.543884E-1,-7.467061E-1,-6.6094136E-1,1.4341769E-1,-5.4701783E-2,2.1390529E0,-9.118286E-1,-4.6029848E-1,-6.8863165E-1,1.7784856E-2,2.1449573E0,7.2043047E0,-4.199254E-2,2.3889247E-2,-4.0539756E-1,7.106276E-2,1.8304577E-2,1.5739506E-1,5.871169E-1,5.992133E0,1.5962504E0,2.4397655E-1,-2.3895445E-1,1.0885208E-1,2.0087902E-2,2.2265486E-1,-4.796605E-2,-1.6775152E-2,-2.708616E-2,-4.805621E-2,-3.9925408E-2,-1.0899644E-3,6.6531524E-2,-1.329716E-2,4.1540306E-2,1.4971916E-1,-4.6482563E-2,-1.6124599E-2,3.934464E-2,-3.7631553E-2,-4.290159E-2,2.9648235E-3,1.6113165E-1,3.95488E-2,2.1130003E-2,4.007412E-1,-2.8590143E-2,-7.659732E-4,4.156161E-1,1.887096E-1,1.1092837E-1,-7.6065557E-3,3.2083362E-2,-3.8222093E-2],"categories":[],"categories_nodes":[],"categories_segments":[],"categories_sizes":[],"default_left":[0,0,0,0,0,0,0,0,0,0,0,0,0,0,0,0,0,0,0,0,0,0,0,0,0,0,0,0,0,0,0,0,0,0,0,0,0,0,0,0,0,0,0,0,0,0,0,0,0,0,0,0,0,0,0,0,0,0,0,0,0,0,0,0,0,0,0,0,0,0,0,0,0,0,0,0,0,0,0,0,0,0,0,0,0],"id":2,"left_children":[1,3,5,7,9,11,13,15,17,19,21,23,25,27,29,31,33,35,37,39,-1,41,-1,43,45,47,-1,49,51,53,55,57,59,61,-1,63,65,67,69,71,-1,73,75,-1,-1,77,-1,-1,-1,-1,79,81,-1,83,-1,-1,-1,-1,-1,-1,-1,-1,-1,-1,-1,-1,-1,-1,-1,-1,-1,-1,-1,-1,-1,-1,-1,-1,-1,-1,-1,-1,-1,-1,-1],"loss_changes":[3.87422E3,2.5491766E2,2.3105371E2,7.750049E1,1.3619173E2,1.3647098E1,3.3579346E1,1.35998535E1,7.822472E1,6.330224E0,1.8223267E2,2.2218754E0,4.750807E0,9.455957E1,5.0968506E1,6.2752075E0,2.1747578E1,6.451288E1,1.9984856E0,1.7600236E0,0E0,8.68262E1,0E0,2.2915351E0,4.099168E0,4.703245E0,0E0,2.6527222E1,2.2121826E1,8.540037E0,1.3440643E1,1.9157104E0,8.810051E0,4.7521234E-1,0E0,1.0349538E1,2.2631134E1,1.8371582E-1,7.110379E0,1.9607372E0,0E0,9.416904E0,4.780423E1,0E0,0E0,2.0364708E-1,0E0,0E0,0E0,0E0,2.1300323E1,5.0529127E0,0E0,2.802371E0,0E0,0E0,0E0,0E0,0E0,0E0,0E0,0E0,0E0,0E0,0E0,0E0,0E0,0E0,0E0,0E0,0E0,0E0,0E0,0E0,0E0,0E0,0E0,0E0,0E0,0E0,0E0,0E0,0E0,0E0,0E0],"parents":[2147483647,0,0,1,1,2,2,3,3,4,4,5,5,6,6,7,7,8,8,9,9,10,10,11,11,12,12,13,13,14,14,15,15,16,16,17,17,18,18,19,19,21,21,23,23,24,24,25,25,27,27,28,28,29,29,30,30,31,31,32,32,33,33,35,35,36,36,37,37,38,38,39,39,41,41,42,42,45,45,50,50,51,51,53,53],"right_children":[2,4,6,8,10,12,14,16,18,20,22,24,26,28,30,32,34,36,38,40,-1,42,-1,44,46,48,-1,50,52,54,56,58,60,62,-1,64,66,68,70,72,-1,74,76,-1,-1,78,-1,-1,-1,-1,80,82,-1,84,-1,-1,-1,-1,-1,-1,-1,-1,-1,-1,-1,-1,-1,-1,-1,-1,-1,-1,-1,-1,-1,-1,-1,-1,-1,-1,-1,-1,-1,-1,-1],"split_conditions":[6.9E1,1E0,9E0,1.717E3,9E0,4.0241447E-3,1E0,6.44176E-4,1E0,6.3E1,1.28E2,3.0229746E-3,6.84077E-7,1.18E2,1.2E1,3.2E1,3.3E1,2.643E3,1.98398E-6,1.61875E-5,5.0855983E-2,1.4E1,-4.4688337E-2,8.103E3,2.743E3,7E0,8.684243E-3,2E0,1.3E1,3E0,3.4843206E-3,1.392E3,1E0,3.957E3,1.4341769E-1,2E0,8E0,6.3E1,2.05584E-6,4.6439627E-3,1.7784856E-2,0E0,1E0,-4.199254E-2,2.3889247E-2,2.41E3,7.106276E-2,1.8304577E-2,1.5739506E-1,5.871169E-1,2E0,6.84061E-7,2.4397655E-1,2.503129E-3,1.0885208E-1,2.0087902E-2,2.2265486E-1,-4.796605E-2,-1.6775152E-2,-2.708616E-2,-4.805621E-2,-3.9925408E-2,-1.0899644E-3,6.6531524E-2,-1.329716E-2,4.1540306E-2,1.4971916E-1,-4.6482563E-2,-1.6124599E-2,3.934464E-2,-3.7631553E-2,-4.290159E-2,2.9648235E-3,1.6113165E-1,3.95488E-2,2.1130003E-2,4.007412E-1,-2.8590143E-2,-7.659732E-4,4.156161E-1,1.887096E-1,1.1092837E-1,-7.6065557E-3,3.2083362E-2,-3.8222093E-2],"split_indices":[4,9,6,7,6,3,21,27,21,4,6,3,26,4,6,4,4,0,28,33,0,6,0,0,0,6,0,22,6,21,3,7,21,0,0,22,6,4,26,3,0,26,22,0,0,0,0,0,0,0,25,26,0,3,0,0,0,0,0,0,0,0,0,0,0,0,0,0,0,0,0,0,0,0,0,0,0,0,0,0,0,0,0,0,0],"split_type":[0,0,0,0,0,0,0,0,0,0,0,0,0,0,0,0,0,0,0,0,0,0,0,0,0,0,0,0,0,0,0,0,0,0,0,0,0,0,0,0,0,0,0,0,0,0,0,0,0,0,0,0,0,0,0,0,0,0,0,0,0,0,0,0,0,0,0,0,0,0,0,0,0,0,0,0,0,0,0,0,0,0,0,0,0],"sum_hessian":[1.2636627E3,1.1055334E3,1.5812923E2,1.0659572E3,3.957624E1,1.3231487E1,1.4489775E2,9.494403E2,1.1651689E2,1.7219078E1,2.2357162E1,8.896545E0,4.334942E0,1.2189723E2,2.3000511E1,9.4326184E2,6.1784754E0,5.4604877E1,6.191201E1,1.52671795E1,1.9518974E0,1.5513692E1,6.8434706E0,5.57144E0,3.3251057E0,2.812771E0,1.5221709E0,1.1755167E1,1.1014207E2,5.1625257E0,1.7837986E1,7.319688E2,2.1129305E2,4.6027374E0,1.5757381E0,3.3156925E1,2.1447952E1,4.5034237E1,1.6877773E1,1.4073971E1,1.1932094E0,7.200602E0,8.31309E0,4.5565286E0,1.0149117E0,2.2722735E0,1.0528321E0,1.1724254E0,1.6403457E0,2.519609E0,9.2355585E0,3.3338184E0,1.0680825E2,3.9958415E0,1.166684E0,1.0779018E0,1.6760084E1,7.2563525E2,6.3335485E0,1.09826126E2,1.0146693E2,3.582342E0,1.0203954E0,3.6858473E0,2.9471079E1,9.258381E0,1.2189571E1,4.3151787E1,1.8824489E0,2.8835943E0,1.399418E1,1.1354948E1,2.7190223E0,3.2409298E0,3.9596722E0,1.049895E0,7.263195E0,1.2662364E0,1.0060372E0,3.1708102E0,6.0647483E0,2.2603471E0,1.0734714E0,1.4106903E0,2.5851512E0],"tree_param":{"num_deleted":"0","num_feature":"37","num_nodes":"85","size_leaf_vector":"1"}},{"base_weights":[-5.5534076E-2,-7.309898E-1,3.630326E0,-8.23737E-1,1.5851777E0,8.187632E-1,3.9916332E0,-8.9713913E-1,-3.2696536E-1,-2.5510892E-1,3.1149356E0,1.536441E0,-1.7802376E-1,4.191727E0,2.9149497E0,-9.036326E-1,1.2996402E0,2.8581417E-1,-7.8336054E-1,-5.7542413E-1,8.469173E-1,4.8231583E0,-4.4409025E-2,-6.392758E-2,2.5514505E0,-6.760782E-1,6.755457E-2,5.5027976E0,3.9629164E0,3.15106E-1,3.5984104E0,-9.556686E-1,-7.2700924E-1,-1.0189655E-3,9.894225E-2,-4.3306932E-1,1.2822584E0,-5.22128E-1,-9.72795E-1,-6.7768437E-1,1.9891068E-2,1.4413093E0,-2.7614994E-2,6.4166384E0,1.8193593E0,-6.1549747E-1,5.7329327E-2,3.8477507E0,2.140683E-1,-4.3999888E-2,7.803086E-3,6.436269E0,2.7927582E0,1.7065396E0,2.0068987E-1,-5.6072056E-1,1.1694908E0,4.794522E-2,1.8940322E-1,-4.5089234E-2,-5.035401E-2,-2.6508842E-2,-4.6856876E-2,1.2393708E-2,-4.3790407E-2,3.0984733E-2,2.6018187E-1,1.052927E-3,-4.1729923E-2,-4.9771752E-2,-1.0909401E-3,-4.270506E-2,6.3925027E-3,-4.753433E-3,1.1016454E-1,4.293198E-2,3.504785E-1,-2.242184E-2,2.5013366E-1,-6.769574E-4,-3.82608E-2,2.651138E-1,7.7929914E-2,2.64858E-2,-1.0193082E-2,3.7984142E-1,1.1922821E-1,3.5302203E-2,2.1997912E-1,1.4607958E-1,8.019469E-3,-3.589798E-2,-1.3989697E-3,-1.5312299E-2,1.1713835E-1],"categories":[],"categories_nodes":[],"categories_segments":[],"categories_sizes":[],"default_left":[0,0,0,0,0,0,0,0,0,0,0,0,0,0,0,0,0,0,0,0,0,0,0,0,0,0,0,0,0,0,0,0,0,0,0,0,0,0,0,0,0,0,0,0,0,0,0,0,0,0,0,0,0,0,0,0,0,0,0,0,0,0,0,0,0,0,0,0,0,0,0,0,0,0,0,0,0,0,0,0,0,0,0,0,0,0,0,0,0,0,0,0,0,0,0],"id":3,"left_children":[1,3,5,7,9,11,13,15,17,19,21,23,25,27,29,31,33,35,37,39,41,43,-1,45,47,49,-1,51,53,55,57,59,61,-1,-1,63,65,67,69,71,-1,73,-1,75,77,79,-1,81,83,-1,-1,85,87,89,-1,91,93,-1,-1,-1,-1,-1,-1,-1,-1,-1,-1,-1,-1,-1,-1,-1,-1,-1,-1,-1,-1,-1,-1,-1,-1,-1,-1,-1,-1,-1,-1,-1,-1,-1,-1,-1,-1,-1,-1],"loss_changes":[3.115536E3,2.2848108E2,1.9361401E2,3.6807617E1,1.1638198E2,1.6961899E1,2.472583E1,1.3811523E1,3.7296417E1,7.3925896E0,1.5811993E2,2.2363384E1,9.032987E0,2.0888916E1,5.2453125E1,7.428894E0,2.7489E0,4.1613327E1,3.2649727E0,1.8372955E0,4.7963886E0,6.454349E1,0E0,4.898479E0,2.4589352E1,1.6150765E0,0E0,2.9014343E1,7.472534E0,6.173431E0,8.273743E0,9.743042E-1,7.99543E0,0E0,0E0,1.0480545E1,5.984276E1,5.823324E0,9.048233E-1,2.1874251E0,0E0,4.485884E0,0E0,2.6964233E1,5.216383E1,4.3707263E-1,0E0,9.503609E0,6.423962E-1,0E0,0E0,4.3246277E1,1.8773159E1,7.9679356E0,0E0,3.4154344E-1,7.7412596E0,0E0,0E0,0E0,0E0,0E0,0E0,0E0,0E0,0E0,0E0,0E0,0E0,0E0,0E0,0E0,0E0,0E0,0E0,0E0,0E0,0E0,0E0,0E0,0E0,0E0,0E0,0E0,0E0,0E0,0E0,0E0,0E0,0E0,0E0,0E0,0E0,0E0,0E0],"parents":[2147483647,0,0,1,1,2,2,3,3,4,4,5,5,6,6,7,7,8,8,9,9,10,10,11,11,12,12,13,13,14,14,15,15,16,16,17,17,18,18,19,19,20,20,21,21,23,23,24,24,25,25,27,27,28,28,29,29,30,30,31,31,32,32,35,35,36,36,37,37,38,38,39,39,41,41,43,43,44,44,45,45,47,47,48,48,51,51,52,52,53,53,55,55,56,56],"right_children":[2,4,6,8,10,12,14,16,18,20,22,24,26,28,30,32,34,36,38,40,42,44,-1,46,48,50,-1,52,54,56,58,60,62,-1,-1,64,66,68,70,72,-1,74,-1,76,78,80,-1,82,84,-1,-1,86,88,90,-1,92,94,-1,-1,-1,-1,-1,-1,-1,-1,-1,-1,-1,-1,-1,-1,-1,-1,-1,-1,-1,-1,-1,-1,-1,-1,-1,-1,-1,-1,-1,-1,-1,-1,-1,-1,-1,-1,-1,-1],"split_conditions":[6.3E1,1E0,9E0,1.855E3,1.1E1,1E0,1E0,4.54392E-3,1E0,9E0,4.225352E-2,7E0,8.4E1,1.18E2,3.8022813E-3,3.2E1,3.126E3,3.4E1,2E0,1.61875E-5,3E0,1.36833E-6,-4.4409025E-2,2.69781E-6,3E0,3E0,6.755457E-2,3E0,1.3E1,2.8248588E-3,1.2E1,1E0,1E0,-1.0189655E-3,9.894225E-2,0E0,2E0,2.05584E-6,2.8612304E-3,4.6439627E-3,1.9891068E-2,2.247E3,-2.7614994E-2,1E0,1.23031E-4,2.0607933E-3,5.7329327E-2,3E0,0E0,-4.3999888E-2,7.803086E-3,9.26908E-7,3.7688443E-3,2E0,2.0068987E-1,0E0,1E0,4.794522E-2,1.8940322E-1,-4.5089234E-2,-5.035401E-2,-2.6508842E-2,-4.6856876E-2,1.2393708E-2,-4.3790407E-2,3.0984733E-2,2.6018187E-1,1.052927E-3,-4.1729923E-2,-4.9771752E-2,-1.0909401E-3,-4.270506E-2,6.3925027E-3,-4.753433E-3,1.1016454E-1,4.293198E-2,3.504785E-1,-2.242184E-2,2.5013366E-1,-6.769574E-4,-3.82608E-2,2.651138E-1,7.7929914E-2,2.64858E-2,-1.0193082E-2,3.7984142E-1,1.1922821E-1,3.5302203E-2,2.1997912E-1,1.4607958E-1,8.019469E-3,-3.589798E-2,-1.3989697E-3,-1.5312299E-2,1.1713835E-1],"split_indices":[4,9,6,5,6,21,21,36,21,6,8,6,4,4,8,4,0,4,21,33,24,26,0,33,24,21,0,24,6,8,6,21,21,0,0,26,23,26,3,3,0,5,0,22,29,3,0,22,26,0,0,33,8,24,0,26,19,0,0,0,0,0,0,0,0,0,0,0,0,0,0,0,0,0,0,0,0,0,0,0,0,0,0,0,0,0,0,0,0,0,0,0,0,0,0],"split_type":[0,0,0,0,0,0,0,0,0,0,0,0,0,0,0,0,0,0,0,0,0,0,0,0,0,0,0,0,0,0,0,0,0,0,0,0,0,0,0,0,0,0,0,0,0,0,0,0,0,0,0,0,0,0,0,0,0,0,0,0,0,0,0,0,0,0,0,0,0,0,0,0,0,0,0,0,0,0,0,0,0,0,0,0,0,0,0,0,0,0,0,0,0,0,0],"sum_hessian":[1.2493367E3,1.056524E3,1.9281262E2,1.01646564E3,4.005839E1,2.2328253E1,1.7048438E2,8.8490735E2,1.3155827E2,1.856186E1,2.149653E1,1.2666844E1,9.661409E0,1.4132663E2,2.9157734E1,8.828863E2,2.02106E0,5.6317406E1,7.5240875E1,1.4751913E1,3.8099458E0,1.4923483E1,6.573048E0,5.279562E0,7.3872824E0,7.7085037E0,1.9529055E0,1.7574755E1,1.2375188E2,6.3736806E0,2.2784054E1,6.7856067E2,2.043256E2,1.0161638E0,1.0048962E0,3.3043556E1,2.3273848E1,3.3205837E1,4.2035034E1,1.3624097E1,1.1278162E0,2.6529016E0,1.1570442E0,9.008438E0,5.9150453E0,3.9646242E0,1.3149377E0,4.3362446E0,3.051038E0,6.1451063E0,1.5633972E0,1.2049382E1,5.5253735E0,3.490731E0,1.2026115E2,3.3170748E0,3.056606E0,1.9333117E0,2.0850742E1,3.4036642E2,3.3819427E2,1.0731967E2,9.7005936E1,1.3192812E1,1.9850744E1,2.0900492E1,2.3733575E0,1.2466743E1,2.0739094E1,4.101191E1,1.0231255E0,1.112694E1,2.4971566E0,1.1696929E0,1.4832089E0,1.104379E0,7.904059E0,3.9559507E0,1.9590945E0,1.0068622E0,2.957762E0,1.8466336E0,2.489611E0,1.5858362E0,1.465202E0,8.686323E0,3.3630586E0,3.0299325E0,2.495441E0,1.4565223E0,2.0342085E0,2.292709E0,1.0243655E0,1.6811066E0,1.3754995E0],"tree_param":{"num_deleted":"0","num_feature":"37","num_nodes":"95","size_leaf_vector":"1"}},{"base_weights":[-4.849701E-2,-7.112398E-1,3.1432993E0,-8.0434424E-1,1.4156419E0,2.677552E-1,3.3048065E0,-8.879111E-1,-2.832102E-1,1.8413371E0,-4.423019E-2,1.4216172E0,-1.9846188E-1,9.6595275E-1,3.4487438E0,-8.94695E-1,1.2714306E0,-6.806584E-1,3.7428492E-1,7.6056445E-1,3.2591643E0,8.780178E-2,1.8693527E-2,-6.562128E-1,6.8306156E-2,1.7328339E0,-8.921391E-2,3.5971258E0,2.5778294E0,-9.7353E-1,-7.6722574E-1,1.2315245E-1,-2.6218107E-2,-4.453193E-1,-4.9515996E-2,1.1379892E0,-6.6695595E-1,1.5422021E0,-6.7664325E-1,4.1285706E-1,4.4015474E0,2.2928666E-2,-4.4132393E-2,1.6212054E-1,3.5018775E0,9.924692E-2,-4.1807733E-2,4.594034E0,3.4104502E0,8.0798906E-1,1.6816913E-1,-4.876883E-2,-2.3542994E-3,-2.6731456E-2,-4.884438E-2,2.3734514E-1,-3.4674443E-2,8.66346E-2,8.096287E-3,-3.9404448E-2,4.6373587E-2,-2.8422966E-3,1.3710068E-1,-4.4841807E-2,2.4372434E-2,9.164946E-2,-3.7642892E-2,2.684467E-1,8.3359554E-2,-2.6215851E-2,7.241085E-2,3.626015E-2,2.3861448E-1,2.9410022E-1,1.7110483E-1,8.4466286E-2,1.7338452E-1,-1.4828286E-2,1.3119934E-1],"categories":[],"categories_nodes":[],"categories_segments":[],"categories_sizes":[],"default_left":[0,0,0,0,0,0,0,0,0,0,0,0,0,0,0,0,0,0,0,0,0,0,0,0,0,0,0,0,0,0,0,0,0,0,0,0,0,0,0,0,0,0,0,0,0,0,0,0,0,0,0,0,0,0,0,0,0,0,0,0,0,0,0,0,0,0,0,0,0,0,0,0,0,0,0,0,0,0,0],"id":4,"left_children":[1,3,5,7,9,11,13,15,17,19,-1,21,23,25,27,29,31,33,35,37,39,-1,-1,41,-1,43,45,47,49,51,53,-1,-1,55,-1,57,59,61,63,65,67,-1,-1,69,71,-1,-1,73,75,77,-1,-1,-1,-1,-1,-1,-1,-1,-1,-1,-1,-1,-1,-1,-1,-1,-1,-1,-1,-1,-1,-1,-1,-1,-1,-1,-1,-1,-1],"loss_changes":[2.6118582E3,2.035899E2,9.771094E1,4.243268E1,4.3969177E1,6.9408755E0,6.430859E1,1.3504089E1,3.603405E1,5.392939E1,0E0,6.3448954E-1,7.8387985E0,1.0704171E1,1.5135986E1,7.7159424E0,7.8330903E0,5.803604E0,4.2291187E1,2.5974697E1,4.8967514E1,0E0,0E0,2.4683094E0,0E0,2.054723E1,1.1634342E1,1.3895752E1,4.04171E1,8.3795166E-1,1.540155E1,0E0,0E0,6.8369225E1,0E0,1.7423279E1,5.120825E0,2.832034E1,2.619269E0,1.0612089E1,2.025644E1,0E0,0E0,5.2384768E0,8.974731E0,0E0,0E0,1.3340759E1,7.7061768E0,2.2549269E1,0E0,0E0,0E0,0E0,0E0,0E0,0E0,0E0,0E0,0E0,0E0,0E0,0E0,0E0,0E0,0E0,0E0,0E0,0E0,0E0,0E0,0E0,0E0,0E0,0E0,0E0,0E0,0E0,0E0],"parents":[2147483647,0,0,1,1,2,2,3,3,4,4,5,5,6,6,7,7,8,8,9,9,11,11,12,12,13,13,14,14,15,15,16,16,17,17,18,18,19,19,20,20,23,23,25,25,26,26,27,27,28,28,29,29,30,30,33,33,35,35,36,36,37,37,38,38,39,39,40,40,43,43,44,44,47,47,48,48,49,49],"right_children":[2,4,6,8,10,12,14,16,18,20,-1,22,24,26,28,30,32,34,36,38,40,-1,-1,42,-1,44,46,48,50,52,54,-1,-1,56,-1,58,60,62,64,66,68,-1,-1,70,72,-1,-1,74,76,78,-1,-1,-1,-1,-1,-1,-1,-1,-1,-1,-1,-1,-1,-1,-1,-1,-1,-1,-1,-1,-1,-1,-1,-1,-1,-1,-1,-1,-1],"split_conditions":[6.3E1,1E0,9E0,1.702E3,4.225352E-2,1E0,2.3897458E-3,4.54392E-3,1.3684571E-3,5.586592E-3,-4.423019E-2,1E0,1.15937E-5,1E0,1E0,5E0,3E0,1.5116812E-2,1E0,3E0,1.569E3,8.780178E-2,1.8693527E-2,1.168E3,6.8306156E-2,3.882E3,3.914E3,1.18E2,5.449591E-3,3.992E3,1E0,1.2315245E-1,-2.6218107E-2,1E0,-4.9515996E-2,3E0,4.47247E-5,2.259E3,4.287245E-3,2E0,1.16147E-5,2.2928666E-2,-4.4132393E-2,3E0,1.8948365E-3,9.924692E-2,-4.1807733E-2,2E0,1.5E1,3E0,1.6816913E-1,-4.876883E-2,-2.3542994E-3,-2.6731456E-2,-4.884438E-2,2.3734514E-1,-3.4674443E-2,8.66346E-2,8.096287E-3,-3.9404448E-2,4.6373587E-2,-2.8422966E-3,1.3710068E-1,-4.4841807E-2,2.4372434E-2,9.164946E-2,-3.7642892E-2,2.684467E-1,8.3359554E-2,-2.6215851E-2,7.241085E-2,3.626015E-2,2.3861448E-1,2.9410022E-1,1.7110483E-1,8.4466286E-2,1.7338452E-1,-1.4828286E-2,1.3119934E-1],"split_indices":[4,9,1,5,8,25,8,36,3,8,0,21,35,21,21,1,25,8,21,24,5,0,0,0,0,5,2,4,8,0,21,0,0,19,0,24,30,5,3,24,35,0,0,25,3,0,0,25,1,21,0,0,0,0,0,0,0,0,0,0,0,0,0,0,0,0,0,0,0,0,0,0,0,0,0,0,0,0,0],"split_type":[0,0,0,0,0,0,0,0,0,0,0,0,0,0,0,0,0,0,0,0,0,0,0,0,0,0,0,0,0,0,0,0,0,0,0,0,0,0,0,0,0,0,0,0,0,0,0,0,0,0,0,0,0,0,0,0,0,0,0,0,0,0,0,0,0,0,0,0,0,0,0,0,0,0,0,0,0,0,0],"sum_hessian":[1.2326658E3,1.02136694E3,2.1129887E2,9.791274E2,4.2239563E1,1.1377985E1,1.999209E2,8.4320996E2,1.359174E2,3.5811592E1,6.427972E0,2.684567E0,8.693418E0,1.20372505E1,1.8788364E2,8.41153E2,2.056948E0,8.468878E1,5.122862E1,2.1193087E1,1.46185055E1,1.5225804E0,1.1619866E0,7.1748533E0,1.5185648E0,6.59897E0,5.438281E0,1.5785828E2,3.0025372E1,5.156223E2,3.2553067E2,1.0131167E0,1.0438312E0,4.9504234E1,3.5184544E1,2.949928E1,2.1729338E1,1.3680031E1,7.513056E0,4.576733E0,1.0041772E1,1.0382327E0,6.1366205E0,4.0736585E0,2.5253115E0,1.0010574E0,4.437224E0,2.117377E1,1.366845E2,9.853694E0,2.0171679E1,5.145439E2,1.0784241E0,1.5600752E2,1.6952315E2,1.4312773E0,4.8072956E1,1.7848959E1,1.1650322E1,2.0665077E1,1.0642589E0,6.2727065E0,7.4073243E0,6.511047E0,1.002009E0,1.8051695E0,2.7715638E0,6.705815E0,3.335957E0,3.0422275E0,1.031431E0,1.2858144E0,1.2394971E0,8.172777E0,1.3000995E1,5.38157E0,1.3130293E2,6.6472754E0,3.2064183E0],"tree_param":{"num_deleted":"0","num_feature":"37","num_nodes":"79","size_leaf_vector":"1"}},{"base_weights":[-5.5855762E-2,-7.0322865E-1,2.80327E0,-8.6604416E-1,2.6755008E-1,1.2684482E0,3.0397367E0,-8.7392557E-1,1.4875368E0,1.003795E0,-5.248849E-1,1.8850569E0,-1.613914E-1,2.6521537E-1,3.1038125E0,-9.267895E-1,-6.902562E-1,-3.2550704E-3,1.1720859E-1,4.493179E-1,2.9636421E0,-7.2503656E-1,6.645984E-1,2.6048298E0,4.6545398E-1,-6.736731E-1,3.9175695E-1,9.619128E-2,-5.6357247E-1,3.1903872E0,2.5102553E0,-9.347587E-1,-3.4431916E-1,-4.8551E-1,-9.171948E-1,9.8248295E-2,2.8715246E0,2.2018687E-1,5.872764E-1,-9.232257E-1,2.431493E-1,2.2634692E0,-5.808113E-1,4.1049404E0,1.1345924E0,-5.5850506E-1,1.2015331E0,-4.045148E-2,-8.158595E-4,-1.4759864E-1,6.9598556E-2,-3.6021188E-2,-1.0643539E-3,4.1922026E0,3.0543604E0,2.1804544E-1,1.5029828E-1,-4.42602E-2,-4.9014006E-2,1.435484E-2,-4.256188E-2,-4.1281115E-2,-1.0001959E-2,-4.6919297E-2,2.0737868E-2,3.0110437E-2,-2.922655E-2,2.7725765E-1,6.5315045E-2,-2.5993815E-2,7.031216E-2,-4.703286E-2,-1.307755E-2,-3.7546024E-2,9.443631E-2,-1.7807437E-2,2.1642588E-1,2.1784663E-2,-4.2409707E-2,8.162749E-2,2.5327194E-1,-2.8997598E-2,7.47096E-2,-3.578494E-2,-1.1074438E-3,-4.8366752E-3,1.076831E-1,-3.6461663E-2,4.3409146E-2,2.3064008E-1,1.07209004E-1,3.1457793E-2,1.5353465E-1,-3.6253374E-2,4.990523E-2],"categories":[],"categories_nodes":[],"categories_segments":[],"categories_sizes":[],"default_left":[0,0,0,0,0,0,0,0,0,0,0,0,0,0,0,0,0,0,0,0,0,0,0,0,0,0,0,0,0,0,0,0,0,0,0,0,0,0,0,0,0,0,0,0,0,0,0,0,0,0,0,0,0,0,0,0,0,0,0,0,0,0,0,0,0,0,0,0,0,0,0,0,0,0,0,0,0,0,0,0,0,0,0,0,0,0,0,0,0,0,0,0,0,0,0],"id":5,"left_children":[1,3,5,7,9,11,13,15,17,19,21,23,25,27,29,31,33,-1,-1,35,37,39,41,43,45,47,49,-1,51,53,55,57,59,61,63,65,67,-1,69,71,73,75,77,79,81,83,85,-1,-1,87,-1,-1,-1,89,91,93,-1,-1,-1,-1,-1,-1,-1,-1,-1,-1,-1,-1,-1,-1,-1,-1,-1,-1,-1,-1,-1,-1,-1,-1,-1,-1,-1,-1,-1,-1,-1,-1,-1,-1,-1,-1,-1,-1,-1],"loss_changes":[2.2394934E3,1.5615375E2,7.721741E1,1.6974915E1,8.36364E1,2.8109505E1,3.3460938E1,7.5438843E0,4.395966E0,7.928645E1,1.6972023E1,2.1383537E1,3.2176464E0,8.571226E0,1.6724854E0,2.7025146E0,8.489395E0,0E0,0E0,4.9893784E1,5.279004E1,1.1692623E1,2.2218716E1,2.722647E1,7.196449E0,5.010383E-1,3.2503486E0,0E0,3.5936344E-1,9.098389E0,3.1924133E1,5.809326E-1,3.5659046E0,9.85594E0,2.931694E0,1.8441437E1,2.3866627E1,0E0,7.3136663E0,3.2858276E-1,1.932544E1,2.7512674E1,2.1897898E0,7.81575E0,6.219985E0,3.4697998E-1,6.826728E0,0E0,0E0,3.3337293E0,0E0,0E0,0E0,4.3483887E0,3.8192139E0,5.267526E0,0E0,0E0,0E0,0E0,0E0,0E0,0E0,0E0,0E0,0E0,0E0,0E0,0E0,0E0,0E0,0E0,0E0,0E0,0E0,0E0,0E0,0E0,0E0,0E0,0E0,0E0,0E0,0E0,0E0,0E0,0E0,0E0,0E0,0E0,0E0,0E0,0E0,0E0,0E0],"parents":[2147483647,0,0,1,1,2,2,3,3,4,4,5,5,6,6,7,7,8,8,9,9,10,10,11,11,12,12,13,13,14,14,15,15,16,16,19,19,20,20,21,21,22,22,23,23,24,24,25,25,26,26,28,28,29,29,30,30,31,31,32,32,33,33,34,34,35,35,36,36,38,38,39,39,40,40,41,41,42,42,43,43,44,44,45,45,46,46,49,49,53,53,54,54,55,55],"right_children":[2,4,6,8,10,12,14,16,18,20,22,24,26,28,30,32,34,-1,-1,36,38,40,42,44,46,48,50,-1,52,54,56,58,60,62,64,66,68,-1,70,72,74,76,78,80,82,84,86,-1,-1,88,-1,-1,-1,90,92,94,-1,-1,-1,-1,-1,-1,-1,-1,-1,-1,-1,-1,-1,-1,-1,-1,-1,-1,-1,-1,-1,-1,-1,-1,-1,-1,-1,-1,-1,-1,-1,-1,-1,-1,-1,-1,-1,-1,-1],"split_conditions":[6.3E1,1.656E3,1.2E1,4.54392E-3,1E0,1E0,1.814059E-3,3.2E1,2.9E1,3.932584E-3,5.97372E-5,3E0,3.1948881E-3,4.868E3,1E0,1.329E3,1E0,-3.2550704E-3,1.1720859E-1,2E0,1.79964E-6,3E0,0E0,3E0,3.4083163E-3,3.4E3,3E0,9.619128E-2,1.0171E4,1.18E2,4.297994E-3,1E0,2E0,2.497E3,4.937459E-3,3E0,2E0,2.2018687E-1,2.98739E-5,5.9E1,3.2102729E-3,4.2607584E-3,7.352941E-3,3.233107E-3,1.461E3,2.929E3,2.233E3,-4.045148E-2,-8.158595E-4,1E1,6.9598556E-2,-3.6021188E-2,-1.0643539E-3,3E0,1.3E1,2.8248588E-3,1.5029828E-1,-4.42602E-2,-4.9014006E-2,1.435484E-2,-4.256188E-2,-4.1281115E-2,-1.0001959E-2,-4.6919297E-2,2.0737868E-2,3.0110437E-2,-2.922655E-2,2.7725765E-1,6.5315045E-2,-2.5993815E-2,7.031216E-2,-4.703286E-2,-1.307755E-2,-3.7546024E-2,9.443631E-2,-1.7807437E-2,2.1642588E-1,2.1784663E-2,-4.2409707E-2,8.162749E-2,2.5327194E-1,-2.8997598E-2,7.47096E-2,-3.578494E-2,-1.1074438E-3,-4.8366752E-3,1.076831E-1,-3.6461663E-2,4.3409146E-2,2.3064008E-1,1.07209004E-1,3.1457793E-2,1.5353465E-1,-3.6253374E-2,4.990523E-2],"split_indices":[4,7,1,36,21,21,8,4,4,8,29,24,8,2,21,7,21,0,0,23,28,21,32,22,8,5,21,0,0,4,8,21,24,2,8,24,24,0,29,4,8,8,8,8,5,5,0,0,0,1,0,0,0,24,1,8,0,0,0,0,0,0,0,0,0,0,0,0,0,0,0,0,0,0,0,0,0,0,0,0,0,0,0,0,0,0,0,0,0,0,0,0,0,0,0],"split_type":[0,0,0,0,0,0,0,0,0,0,0,0,0,0,0,0,0,0,0,0,0,0,0,0,0,0,0,0,0,0,0,0,0,0,0,0,0,0,0,0,0,0,0,0,0,0,0,0,0,0,0,0,0,0,0,0,0,0,0,0,0,0,0,0,0,0,0,0,0,0,0,0,0,0,0,0,0,0,0,0,0,0,0,0,0,0,0,0,0,0,0,0,0,0,0],"sum_hessian":[1.2078698E3,9.8548663E2,2.2238316E2,8.440358E2,1.4145076E2,3.053772E1,1.9184544E2,8.4184546E2,2.190388E0,7.318678E1,6.8263985E1,2.1114058E1,9.423662E0,4.446541E0,1.873989E2,6.505558E2,1.9128969E2,1.107345E0,1.0830429E0,5.8005276E1,1.5181509E1,5.8766018E1,9.497965E0,1.3456425E1,7.657633E0,4.7794394E0,4.6442227E0,1.0413297E0,3.4052112E0,1.5972655E2,2.7672354E1,6.411785E2,9.377265E0,1.0221223E2,8.907745E1,5.1571213E1,6.434063E0,8.921733E0,6.259777E0,4.8819107E1,9.94691E0,3.80089E0,5.697075E0,5.773545E0,7.6828804E0,3.3034499E0,4.354183E0,3.7720103E0,1.0074292E0,3.5710192E0,1.0732037E0,2.3864548E0,1.0187565E0,1.553022E1,1.4419632E2,5.1763396E0,2.2496014E1,3.1677838E2,3.2440012E2,4.368953E0,5.0083113E0,4.5778812E1,5.643341E1,8.79733E1,1.1041626E0,2.9738894E1,2.183232E1,1.436903E0,4.99716E0,2.816876E0,3.442901E0,4.7155197E1,1.663907E0,6.5399137E0,3.4069963E0,2.0402565E0,1.7606335E0,1.0553802E0,4.6416945E0,2.3707519E0,3.4027927E0,1.2257628E0,6.4571176E0,2.2961333E0,1.0073167E0,2.2223377E0,2.1318455E0,2.4501588E0,1.1208602E0,1.1845261E1,3.6849592E0,1.2289768E0,1.4296735E2,2.3751793E0,2.8011603E0],"tree_param":{"num_deleted":"0","num_feature":"37","num_nodes":"95","size_leaf_vector":"1"}},{"base_weights":[-5.1472403E-2,-6.988291E-1,2.5300033E0,-7.9848796E-1,1.2430532E0,1.4845544E0,2.7907147E0,-8.8999104E-1,-2.578114E-1,1.9897407E0,2.7920488E-1,2.0884824E0,-8.581507E-2,8.841435E-1,2.8404996E0,-8.9733344E-1,1.0327808E0,-6.943628E-1,4.0765876E-1,3.5141494E0,9.308978E-1,-3.2782215E-1,1.893804E0,1.0500113E0,3.3214521E0,-6.6317046E-1,5.8396566E-1,-1.8999754E-1,1.3000368E-1,1.8779397E-1,2.7378154E0,-8.053487E-1,-9.9230844E-1,1.0614306E-1,-2.7805641E-2,-4.282644E-1,-9.661332E-1,1.0460744E0,-5.5819625E-1,4.2385535E0,1.5251669E-2,-6.5640114E-2,1.4653279E-1,-6.262811E-1,1.1424416E0,2.7274609E0,-3.0624224E-2,2.3584118E0,2.9332057E-1,1.0109335E0,3.625288E0,-4.2595264E-2,-1.3146159E-1,-2.3830934E-1,1.6609924E0,3.8403913E-2,-3.695048E-2,1.365778E-2,2.7609293E0,-4.7015764E-2,-2.8664907E-2,-4.974553E-2,-3.0833187E-3,1.119528E-2,-4.66649E-2,-2.0798696E-2,-4.9500294E-2,3.3345748E-2,1.3804016E-1,-3.6070455E-2,4.9378917E-2,5.260538E-2,2.3678449E-1,3.1196741E-2,-4.3579843E-2,3.3255428E-2,-4.395811E-2,1.080572E-1,-2.5720278E-2,3.71608E-2,1.6211423E-1,3.892895E-2,1.7175548E-1,3.199367E-2,-4.017936E-2,-1.8467217E-3,7.502581E-2,2.210784E-1,1.0410335E-1,-2.9274091E-2,2.2372073E-2,-3.7953746E-2,3.8332786E-2,1.1734261E-1,1.4068543E-2,8.149979E-2,1.396031E-1],"categories":[],"categories_nodes":[],"categories_segments":[],"categories_sizes":[],"default_left":[0,0,0,0,0,0,0,0,0,0,0,0,0,0,0,0,0,0,0,0,0,0,0,0,0,0,0,0,0,0,0,0,0,0,0,0,0,0,0,0,0,0,0,0,0,0,0,0,0,0,0,0,0,0,0,0,0,0,0,0,0,0,0,0,0,0,0,0,0,0,0,0,0,0,0,0,0,0,0,0,0,0,0,0,0,0,0,0,0,0,0,0,0,0,0,0,0],"id":6,"left_children":[1,3,5,7,9,11,13,15,17,19,21,23,25,27,29,31,33,35,37,39,41,43,45,47,49,51,53,55,-1,-1,57,59,61,-1,-1,63,65,67,69,71,-1,73,-1,75,77,79,-1,81,83,85,87,-1,89,91,93,-1,-1,-1,95,-1,-1,-1,-1,-1,-1,-1,-1,-1,-1,-1,-1,-1,-1,-1,-1,-1,-1,-1,-1,-1,-1,-1,-1,-1,-1,-1,-1,-1,-1,-1,-1,-1,-1,-1,-1,-1,-1],"loss_changes":[1.9868505E3,1.8493686E2,6.082849E1,4.4529297E1,3.3118736E1,4.7329803E1,1.5490601E1,1.18446045E1,3.87341E1,3.902115E1,2.1779346E1,4.2538803E1,6.0987186E0,1.206586E1,7.0478516E0,5.936035E0,7.081212E0,5.3929825E0,3.330237E1,2.283609E1,3.3716488E1,7.9742684E0,1.4303303E1,2.0074305E1,7.5477905E0,7.310002E-1,6.922167E0,3.088785E0,0E0,0E0,8.900391E0,1.1892761E1,8.467102E-1,0E0,0E0,1.4163311E1,9.945297E-2,1.9154636E1,6.2042117E0,8.308731E0,0E0,7.3272324E0,0E0,5.286154E0,6.4206195E0,2.4123611E0,0E0,1.0157021E1,6.0000105E0,1.719105E0,7.6648865E0,0E0,1.1511664E0,3.2266488E0,2.4772587E0,0E0,0E0,0E0,1.3565674E0,0E0,0E0,0E0,0E0,0E0,0E0,0E0,0E0,0E0,0E0,0E0,0E0,0E0,0E0,0E0,0E0,0E0,0E0,0E0,0E0,0E0,0E0,0E0,0E0,0E0,0E0,0E0,0E0,0E0,0E0,0E0,0E0,0E0,0E0,0E0,0E0,0E0,0E0],"parents":[2147483647,0,0,1,1,2,2,3,3,4,4,5,5,6,6,7,7,8,8,9,9,10,10,11,11,12,12,13,13,14,14,15,15,16,16,17,17,18,18,19,19,20,20,21,21,22,22,23,23,24,24,25,25,26,26,27,27,30,30,31,31,32,32,35,35,36,36,37,37,38,38,39,39,41,41,43,43,44,44,45,45,47,47,48,48,49,49,50,50,52,52,53,53,54,54,58,58],"right_children":[2,4,6,8,10,12,14,16,18,20,22,24,26,28,30,32,34,36,38,40,42,44,46,48,50,52,54,56,-1,-1,58,60,62,-1,-1,64,66,68,70,72,-1,74,-1,76,78,80,-1,82,84,86,88,-1,90,92,94,-1,-1,-1,96,-1,-1,-1,-1,-1,-1,-1,-1,-1,-1,-1,-1,-1,-1,-1,-1,-1,-1,-1,-1,-1,-1,-1,-1,-1,-1,-1,-1,-1,-1,-1,-1,-1,-1,-1,-1,-1,-1],"split_conditions":[6.3E1,1E0,3.8610038E-3,1.718E3,1E0,1E0,9E0,4.54392E-3,1.3320013E-3,2E0,3E0,3.591E3,7.7E1,3E0,1.18E2,1E0,3E0,0E0,1E0,3E0,3.57E3,4.235E3,0E0,2E0,4.878E3,3.128E3,3.2E-3,1E0,1.3000368E-1,1.8779397E-1,1.3E1,5E0,1E0,1.0614306E-1,-2.7805641E-2,2E0,1.8470632E-3,2E0,2.51902E-5,1.785E3,1.5251669E-2,1.02035E-6,1.4653279E-1,1E0,2.2614975E-2,4.388371E-3,-3.0624224E-2,1E0,4.264E3,2.7491408E-3,3.1298904E-3,-4.2595264E-2,1E0,2.8248588E-3,2.466E3,3.8403913E-2,-3.695048E-2,1.365778E-2,1.5E1,-4.7015764E-2,-2.8664907E-2,-4.974553E-2,-3.0833187E-3,1.119528E-2,-4.66649E-2,-2.0798696E-2,-4.9500294E-2,3.3345748E-2,1.3804016E-1,-3.6070455E-2,4.9378917E-2,5.260538E-2,2.3678449E-1,3.1196741E-2,-4.3579843E-2,3.3255428E-2,-4.395811E-2,1.080572E-1,-2.5720278E-2,3.71608E-2,1.6211423E-1,3.892895E-2,1.7175548E-1,3.199367E-2,-4.017936E-2,-1.8467217E-3,7.502581E-2,2.210784E-1,1.0410335E-1,-2.9274091E-2,2.2372073E-2,-3.7953746E-2,3.8332786E-2,1.1734261E-1,1.4068543E-2,8.149979E-2,1.396031E-1],"split_indices":[4,9,8,5,21,21,1,36,3,24,21,5,4,25,4,21,25,33,21,22,5,5,33,24,0,5,3,25,0,0,1,1,17,0,0,21,8,23,31,5,0,33,0,25,8,8,0,23,0,8,8,0,23,8,5,0,0,0,1,0,0,0,0,0,0,0,0,0,0,0,0,0,0,0,0,0,0,0,0,0,0,0,0,0,0,0,0,0,0,0,0,0,0,0,0,0,0],"split_type":[0,0,0,0,0,0,0,0,0,0,0,0,0,0,0,0,0,0,0,0,0,0,0,0,0,0,0,0,0,0,0,0,0,0,0,0,0,0,0,0,0,0,0,0,0,0,0,0,0,0,0,0,0,0,0,0,0,0,0,0,0,0,0,0,0,0,0,0,0,0,0,0,0,0,0,0,0,0,0,0,0,0,0,0,0,0,0,0,0,0,0,0,0,0,0,0,0],"sum_hessian":[1.1868643E3,9.4949E2,2.3737433E2,9.037002E2,4.578975E1,4.871644E1,1.886579E2,7.7234406E2,1.3135616E2,2.520174E1,2.0588007E1,3.494678E1,1.3769659E1,5.2782993E0,1.833796E2,7.6993726E2,2.4068058E0,7.929492E1,5.2061234E1,9.379411E0,1.582233E1,1.5541838E1,5.0461683E0,1.997468E1,1.49721E1,7.4003654E0,6.369294E0,3.7931383E0,1.485161E0,1.4907704E1,1.684719E2,3.9594144E2,3.7399582E2,1.2281532E0,1.1786525E0,4.136705E1,3.7927868E1,3.129359E1,2.0767645E1,7.390373E0,1.9890376E0,1.1205485E1,4.616845E0,1.3396438E1,2.1454E0,3.7204142E0,1.3257539E0,6.543505E0,1.3431175E1,2.2429364E0,1.2729164E1,5.0172462E0,2.383119E0,4.0533934E0,2.3159006E0,1.2364327E0,2.5567057E0,1.6843641E0,1.6678752E2,2.4840846E2,1.4753296E2,3.7288416E2,1.1116824E0,1.8296589E1,2.3070461E1,2.3435714E0,3.5584297E1,2.67644E1,4.529189E0,1.9266651E1,1.5009943E0,1.4179857E0,5.9723873E0,6.160457E0,5.045028E0,1.9267851E0,1.1469653E1,1.140066E0,1.0053339E0,1.2698319E0,2.4505823E0,3.3504808E0,3.1930244E0,1.0523179E1,2.9079955E0,1.0086509E0,1.2342854E0,7.1663013E0,5.5628624E0,1.3292528E0,1.0538663E0,2.831043E0,1.2223506E0,1.0786035E0,1.237297E0,5.8978114E0,1.6088971E2],"tree_param":{"num_deleted":"0","num_feature":"37","num_nodes":"97","size_leaf_vector":"1"}},{"base_weights":[-4.2349204E-2,-6.82489E-1,2.299796E0,-8.508135E-1,1.6065638E-1,7.157167E-1,2.5316894E0,-8.63235E-1,1.8588352E0,6.8425506E-1,-4.9777407E-2,5.378784E-1,1.4515494E-1,1.877427E0,2.6143086E0,-9.4376487E-1,-6.262579E-1,-1.5203466E-2,1.9788192E-1,9.8224565E-2,2.9083738E0,1.4729903E0,-9.099003E-3,1.3568594E0,1.6480468E-1,2.571273E-1,2.5600772E0,-9.4538397E-1,-2.4563235E-3,-4.628904E-2,-5.354549E-1,-1.0419448E-1,1.4250925E0,1.8007247E-1,1.299799E0,1.7734541E0,-2.896308E-2,-3.7228408E-1,5.567729E-1,1.6371427E0,1.8861566E-1,3.37742E-2,1.283945E-1,-4.8569944E-2,-4.3724608E-2,-2.9865012E-2,6.045851E-3,-9.31162E-3,1.4902332E-1,2.2126229E-1,4.549015E-3,-2.1658558E-2,1.413474E-1,-2.7442325E-2,1.0525613E-1,-3.9715733E-2,1.4817379E-2,7.558694E-2,-1.5061389E-2,5.7136994E-2,1.75168E-1,3.713163E-2,-2.6803488E-2],"categories":[],"categories_nodes":[],"categories_segments":[],"categories_sizes":[],"default_left":[0,0,0,0,0,0,0,0,0,0,0,0,0,0,0,0,0,0,0,0,0,0,0,0,0,0,0,0,0,0,0,0,0,0,0,0,0,0,0,0,0,0,0,0,0,0,0,0,0,0,0,0,0,0,0,0,0,0,0,0,0,0,0],"id":7,"left_children":[1,3,5,7,9,11,13,15,17,19,-1,21,-1,23,25,27,29,-1,-1,31,33,35,37,39,-1,-1,41,43,-1,-1,45,47,49,-1,51,53,-1,55,57,59,61,-1,-1,-1,-1,-1,-1,-1,-1,-1,-1,-1,-1,-1,-1,-1,-1,-1,-1,-1,-1,-1,-1],"loss_changes":[1.7576615E3,1.3079501E2,9.0624756E1,2.743982E1,9.394065E1,1.14807415E1,6.935791E0,1.4003479E1,1.8543442E1,1.3868872E2,0E0,1.6500679E1,0E0,1.6290695E1,1.3159546E1,7.775574E-1,4.860611E0,0E0,0E0,2.30919E1,2.0069443E1,8.36665E0,4.5912914E0,6.9823837E0,0E0,0E0,1.0622559E0,1.9754028E-1,0E0,0E0,6.3032455E0,1.9546858E1,4.51262E1,0E0,2.3057632E1,9.341873E0,0E0,4.0708404E0,7.6163206E0,1.2446217E1,2.5817256E0,0E0,0E0,0E0,0E0,0E0,0E0,0E0,0E0,0E0,0E0,0E0,0E0,0E0,0E0,0E0,0E0,0E0,0E0,0E0,0E0,0E0,0E0],"parents":[2147483647,0,0,1,1,2,2,3,3,4,4,5,5,6,6,7,7,8,8,9,9,11,11,13,13,14,14,15,15,16,16,19,19,20,20,21,21,22,22,23,23,26,26,27,27,30,30,31,31,32,32,34,34,35,35,37,37,38,38,39,39,40,40],"right_children":[2,4,6,8,10,12,14,16,18,20,-1,22,-1,24,26,28,30,-1,-1,32,34,36,38,40,-1,-1,42,44,-1,-1,46,48,50,-1,52,54,-1,56,58,60,62,-1,-1,-1,-1,-1,-1,-1,-1,-1,-1,-1,-1,-1,-1,-1,-1,-1,-1,-1,-1,-1,-1],"split_conditions":[6.3E1,7E0,1E1,1.59359E-3,4.225352E-2,4.8423E-5,1.3E1,3.2E1,3.3E1,1.4E1,-4.9777407E-2,2E0,1.4515494E-1,2E0,3.1298904E-3,1.63217E-3,5E0,-1.5203466E-2,1.9788192E-1,2E0,1.36833E-6,6.16471E-6,3E0,1.18E2,1.6480468E-1,2.571273E-1,3.3444816E-3,5E0,-2.4563235E-3,-4.628904E-2,2E0,1.04577E-3,2E0,1.8007247E-1,1.84547E-4,1.387E3,-2.896308E-2,7.7E1,0E0,4.702194E-3,0E0,3.37742E-2,1.283945E-1,-4.8569944E-2,-4.3724608E-2,-2.9865012E-2,6.045851E-3,-9.31162E-3,1.4902332E-1,2.2126229E-1,4.549015E-3,-2.1658558E-2,1.413474E-1,-2.7442325E-2,1.0525613E-1,-3.9715733E-2,1.4817379E-2,7.558694E-2,-1.5061389E-2,5.7136994E-2,1.75168E-1,3.713163E-2,-2.6803488E-2],"split_indices":[4,6,6,32,8,33,6,4,4,6,0,25,0,23,8,35,1,0,0,23,26,26,25,4,0,0,8,1,0,0,23,29,24,0,29,0,0,4,26,8,26,0,0,0,0,0,0,0,0,0,0,0,0,0,0,0,0,0,0,0,0,0,0],"split_type":[0,0,0,0,0,0,0,0,0,0,0,0,0,0,0,0,0,0,0,0,0,0,0,0,0,0,0,0,0,0,0,0,0,0,0,0,0,0,0,0,0,0,0,0,0,0,0,0,0,0,0,0,0,0,0,0,0,0,0,0,0,0,0],"sum_hessian":[1.1702743E3,9.196344E2,2.5063982E2,7.6658514E2,1.5304926E2,3.2527626E1,2.1811218E2,7.637654E2,2.8198054E0,1.0562439E2,4.7424866E1,3.123413E1,1.2934941E0,2.711468E1,1.9099751E2,5.678241E2,1.9594128E2,1.8098261E0,1.0099791E0,8.442382E1,2.1200571E1,1.0902414E1,2.0331717E1,2.1267273E1,5.847408E0,2.0405958E0,1.8895691E2,5.667417E2,1.0823894E0,4.3443363E1,1.5249792E2,7.404884E1,1.0374976E1,1.3950787E1,7.2497845E0,9.628574E0,1.2738397E0,1.2592053E1,7.739664E0,1.6828447E1,4.438825E0,1.1411722E0,1.8781573E2,4.0530554E2,1.6143616E2,1.3944865E2,1.3049269E1,7.3045784E1,1.0030587E0,2.4802928E0,7.8946834E0,3.7316055E0,3.518179E0,1.1214586E0,8.507116E0,7.6043363E0,4.987717E0,3.3022666E0,4.4373975E0,1.4578582E1,2.2498648E0,2.5016024E0,1.9372227E0],"tree_param":{"num_deleted":"0","num_feature":"37","num_nodes":"63","size_leaf_vector":"1"}},{"base_weights":[-6.1963134E-2,-6.9136965E-1,2.1246185E0,-7.891727E-1,1.0022286E0,7.843625E-1,2.3335552E0,-8.712013E-1,-2.1551026E-1,-3.951169E-1,1.8347574E0,6.1291E-1,1.3383172E-1,1.7814163E0,2.4120138E0,-8.7883E-1,9.86365E-1,-4.873813E-1,3.6840022E-1,-5.66111E-1,4.5710776E-2,2.4031224E0,-4.265069E-2,8.3938783E-1,-6.8024397E-1,2.5995204E0,1.1056927E0,1.9176671E-1,2.3717885E0,-9.298015E-1,-7.054143E-1,9.097562E-2,-2.593383E-2,-2.4729931E-1,-8.212879E-1,-6.125886E-2,1.3546447E0,-7.3105794E-1,4.3267358E-2,1.4898584E0,3.2603524E0,1.6477528E0,4.892538E-1,-4.083803E-2,-1.1575603E-3,2.7451875E0,3.4189653E-2,1.9116373E0,-1.4907854E-2,2.5815403E-2,1.1908195E-1,-4.7003422E-2,-2.7406072E-2,-4.4931233E-2,-2.8518423E-2,-2.0055762E-2,2.6162118E-2,-4.3736387E-2,-8.3038835E-3,-4.354041E-2,1.1234056E-2,-1.7127186E-2,1.1131721E-1,-4.5396168E-2,-1.6832436E-2,5.294127E-2,-3.5881102E-2,9.411626E-2,-2.1664759E-3,1.821516E-1,6.705131E-3,-5.813471E-3,9.7784095E-2,5.6723077E-2,-1.1767975E-2,1.5072562E-1,5.9610564E-2,2.993672E-2,1.1581012E-1,5.611291E-2,-2.6249615E-2],"categories":[],"categories_nodes":[],"categories_segments":[],"categories_sizes":[],"default_left":[0,0,0,0,0,0,0,0,0,0,0,0,0,0,0,0,0,0,0,0,0,0,0,0,0,0,0,0,0,0,0,0,0,0,0,0,0,0,0,0,0,0,0,0,0,0,0,0,0,0,0,0,0,0,0,0,0,0,0,0,0,0,0,0,0,0,0,0,0,0,0,0,0,0,0,0,0,0,0,0,0],"id":8,"left_children":[1,3,5,7,9,11,13,15,17,19,21,23,-1,25,27,29,31,33,35,37,-1,39,-1,41,43,45,47,-1,49,51,53,-1,-1,55,57,59,61,63,65,67,69,71,73,-1,-1,75,-1,77,79,-1,-1,-1,-1,-1,-1,-1,-1,-1,-1,-1,-1,-1,-1,-1,-1,-1,-1,-1,-1,-1,-1,-1,-1,-1,-1,-1,-1,-1,-1,-1,-1],"loss_changes":[1.5755143E3,1.480177E2,6.982349E1,3.938092E1,5.7690376E1,1.0044451E1,5.270996E0,1.1287476E1,1.7090054E1,4.794921E0,4.919667E1,1.0622665E1,0E0,1.4431419E1,1.8135986E0,5.8220825E0,5.3058786E0,5.6580086E0,1.4664541E1,1.7922225E0,0E0,1.5291794E1,0E0,7.5869236E0,4.8948097E-1,1.8679199E0,1.7083838E1,0E0,2.2055664E0,1.691925E0,3.939354E0,0E0,0E0,5.4204397E0,9.1041374E-1,5.9654784E0,1.6274986E1,6.5981674E-1,4.372584E0,8.687996E0,1.4387512E1,4.8662434E0,1.0605793E1,0E0,0E0,1.4838028E0,0E0,4.451729E0,5.7471733E0,0E0,0E0,0E0,0E0,0E0,0E0,0E0,0E0,0E0,0E0,0E0,0E0,0E0,0E0,0E0,0E0,0E0,0E0,0E0,0E0,0E0,0E0,0E0,0E0,0E0,0E0,0E0,0E0,0E0,0E0,0E0,0E0],"parents":[2147483647,0,0,1,1,2,2,3,3,4,4,5,5,6,6,7,7,8,8,9,9,10,10,11,11,13,13,14,14,15,15,16,16,17,17,18,18,19,19,21,21,23,23,24,24,25,25,26,26,28,28,29,29,30,30,33,33,34,34,35,35,36,36,37,37,38,38,39,39,40,40,41,41,42,42,45,45,47,47,48,48],"right_children":[2,4,6,8,10,12,14,16,18,20,22,24,-1,26,28,30,32,34,36,38,-1,40,-1,42,44,46,48,-1,50,52,54,-1,-1,56,58,60,62,64,66,68,70,72,74,-1,-1,76,-1,78,80,-1,-1,-1,-1,-1,-1,-1,-1,-1,-1,-1,-1,-1,-1,-1,-1,-1,-1,-1,-1,-1,-1,-1,-1,-1,-1,-1,-1,-1,-1,-1,-1],"split_conditions":[6.3E1,1E0,1E1,1.717E3,1.1E1,4.8423E-5,1.3E1,4.54392E-3,2.0714656E-3,1.61875E-5,4.225352E-2,6.84061E-6,1.3383172E-1,2E0,3.1298904E-3,3.2E1,3E0,0E0,2.832E3,2.27E3,4.5710776E-2,7.0205E-3,-4.265069E-2,1E0,6.15157E-5,4.217E3,3E0,1.9176671E-1,3.3444816E-3,2.27E3,2.497E3,9.097562E-2,-2.593383E-2,2E0,5.929E3,2.6619344E-3,1E0,4.4E1,2E0,3E0,3E0,2.1645022E-3,3E0,-4.083803E-2,-1.1575603E-3,8.99285E-7,3.4189653E-2,2.576E3,2.588E3,2.5815403E-2,1.1908195E-1,-4.7003422E-2,-2.7406072E-2,-4.4931233E-2,-2.8518423E-2,-2.0055762E-2,2.6162118E-2,-4.3736387E-2,-8.3038835E-3,-4.354041E-2,1.1234056E-2,-1.7127186E-2,1.1131721E-1,-4.5396168E-2,-1.6832436E-2,5.294127E-2,-3.5881102E-2,9.411626E-2,-2.1664759E-3,1.821516E-1,6.705131E-3,-5.813471E-3,9.7784095E-2,5.6723077E-2,-1.1767975E-2,1.5072562E-1,5.9610564E-2,2.993672E-2,1.1581012E-1,5.611291E-2,-2.6249615E-2],"split_indices":[4,9,6,7,6,33,6,36,3,33,8,26,0,25,8,4,25,26,5,5,0,8,0,25,29,5,22,0,8,5,2,0,0,23,0,8,23,4,25,25,23,3,22,0,0,33,0,0,0,0,0,0,0,0,0,0,0,0,0,0,0,0,0,0,0,0,0,0,0,0,0,0,0,0,0,0,0,0,0,0,0],"split_type":[0,0,0,0,0,0,0,0,0,0,0,0,0,0,0,0,0,0,0,0,0,0,0,0,0,0,0,0,0,0,0,0,0,0,0,0,0,0,0,0,0,0,0,0,0,0,0,0,0,0,0,0,0,0,0,0,0,0,0,0,0,0,0,0,0,0,0,0,0,0,0,0,0,0,0,0,0,0,0,0,0],"sum_hessian":[1.1427214E3,8.8784076E2,2.5488072E2,8.3987317E2,4.796755E1,3.501643E1,2.1986429E2,7.3434924E2,1.05523964E2,1.8104956E1,2.986259E1,3.3321205E1,1.695223E0,3.0304804E1,1.895595E2,7.318704E2,2.478799E0,7.211312E1,3.3410843E1,1.6515697E1,1.5892574E0,2.4737436E1,5.125155E0,2.8653791E1,4.667413E0,1.2420357E1,1.7884447E1,2.6169155E0,1.8694258E2,5.622489E2,1.6962157E2,1.4610561E0,1.0177431E0,4.2962963E1,2.9150158E1,2.3925531E1,9.485311E0,1.2840379E1,3.6753194E0,1.3302932E1,1.1434505E1,7.5399723E0,2.111382E1,3.6633334E0,1.0040797E0,1.1140303E1,1.2800543E0,9.992127E0,7.8923197E0,1.2692791E0,1.856733E2,5.460964E2,1.6152515E1,6.745678E1,1.0216478E2,3.621345E1,6.7495103E0,2.6642153E1,2.5080063E0,5.7110534E0,1.8214478E1,3.424632E0,6.060679E0,7.9661326E0,4.874246E0,1.4065013E0,2.2688184E0,1.0410359E1,2.8925724E0,1.0040195E1,1.3943096E0,1.2130768E0,6.326895E0,1.0869673E1,1.0244147E1,8.691807E0,2.448496E0,2.9379096E0,7.054218E0,2.0722868E0,5.8200326E0],"tree_param":{"num_deleted":"0","num_feature":"37","num_nodes":"81","size_leaf_vector":"1"}},{"base_weights":[-4.6334274E-2,-6.601804E-1,1.9178306E0,-8.402756E-1,2.4743828E-1,8.6940366E-1,2.2063046E0,-8.5150594E-1,5.177924E-1,-1.3193446E-1,1.3312929E0,-1.6964789E-1,1.2330244E0,1.4273995E0,1.11481644E-1,-9.114393E-1,-6.524844E-1,-5.912196E-1,1.0968806E-1,-4.9698812E-1,4.7442302E-1,-1.6776508E-1,1.851807E0,-4.993624E-1,4.9011457E-1,1.3409274E0,-3.541812E-2,1.9125214E0,2.7930215E-2,-9.227905E-1,-1.576277E-1,-8.6825585E-1,-5.237969E-1,-9.1785577E-4,-3.7232835E-2,-5.40781E-1,5.443814E-1,-3.873509E-1,9.799001E-1,-3.926089E-1,4.9013656E-2,2.139772E0,-3.6560662E-2,-8.0613905E-1,2.5411105E-2,6.2031128E-2,-2.411951E-1,1.2131829E0,1.6005342E-1,1.12126306E-1,2.9633164E-2,4.491959E-2,-3.724776E-2,-4.6449166E-2,-2.2775311E-2,-3.9557572E-2,1.812838E-2,-4.6356853E-2,-2.2329025E-3,-2.952594E-2,9.568899E-3,-3.1763423E-2,-1.0465415E-3,-4.3461327E-3,4.731537E-2,1.8824076E-2,-2.5885195E-2,1.3357875E-3,7.6459154E-2,-3.4831714E-2,7.1606473E-3,1.2816517E-1,5.404538E-2,-4.491622E-2,-6.646011E-3,-3.329223E-2,2.4077361E-2,7.232047E-2,-9.614174E-3],"categories":[],"categories_nodes":[],"categories_segments":[],"categories_sizes":[],"default_left":[0,0,0,0,0,0,0,0,0,0,0,0,0,0,0,0,0,0,0,0,0,0,0,0,0,0,0,0,0,0,0,0,0,0,0,0,0,0,0,0,0,0,0,0,0,0,0,0,0,0,0,0,0,0,0,0,0,0,0,0,0,0,0,0,0,0,0,0,0,0,0,0,0,0,0,0,0,0,0],"id":9,"left_children":[1,3,5,7,9,11,13,15,17,19,21,23,25,27,-1,29,31,33,-1,35,37,39,41,43,45,47,-1,49,51,53,55,57,59,-1,-1,61,63,65,67,69,-1,71,-1,73,-1,-1,75,77,-1,-1,-1,-1,-1,-1,-1,-1,-1,-1,-1,-1,-1,-1,-1,-1,-1,-1,-1,-1,-1,-1,-1,-1,-1,-1,-1,-1,-1,-1,-1],"loss_changes":[1.3575625E3,1.404224E2,7.9168945E1,1.1361084E1,5.8893154E1,2.269019E1,6.260376E-1,7.880249E0,1.3367488E1,2.385115E1,2.927024E1,3.791398E0,1.0208488E1,5.971527E0,0E0,4.5055237E0,4.209015E0,3.9908493E-1,0E0,3.353653E0,1.806699E1,3.090724E0,2.211763E1,3.9231102E0,3.5580478E0,6.1480713E0,0E0,1.5348148E0,2.8888698E0,1.1257935E0,3.3416731E0,2.9278526E0,5.2538013E0,0E0,0E0,3.1734085E0,8.956166E-1,1.760925E0,1.3506954E1,1.6440618E0,0E0,8.492386E0,0E0,4.453578E-1,0E0,0E0,1.5005413E0,1.3754875E1,0E0,0E0,0E0,0E0,0E0,0E0,0E0,0E0,0E0,0E0,0E0,0E0,0E0,0E0,0E0,0E0,0E0,0E0,0E0,0E0,0E0,0E0,0E0,0E0,0E0,0E0,0E0,0E0,0E0,0E0,0E0],"parents":[2147483647,0,0,1,1,2,2,3,3,4,4,5,5,6,6,7,7,8,8,9,9,10,10,11,11,12,12,13,13,15,15,16,16,17,17,19,19,20,20,21,21,22,22,23,23,24,24,25,25,27,27,28,28,29,29,30,30,31,31,32,32,35,35,36,36,37,37,38,38,39,39,41,41,43,43,46,46,47,47],"right_children":[2,4,6,8,10,12,14,16,18,20,22,24,26,28,-1,30,32,34,-1,36,38,40,42,44,46,48,-1,50,52,54,56,58,60,-1,-1,62,64,66,68,70,-1,72,-1,74,-1,-1,76,78,-1,-1,-1,-1,-1,-1,-1,-1,-1,-1,-1,-1,-1,-1,-1,-1,-1,-1,-1,-1,-1,-1,-1,-1,-1,-1,-1,-1,-1,-1,-1],"split_conditions":[6.3E1,1.656E3,1.2E1,6.44176E-4,1E0,8E0,1.3E1,3.2E1,3.3E1,7E0,1.1E1,6.94312E-7,4.598E3,6.84157E-7,1.11481644E-1,1E0,2.244E3,2.222E3,1.0968806E-1,3.1471283E-3,2.1315468E-3,2.98739E-5,4.225352E-2,1.4E1,6.84061E-6,3.82643E-5,-3.541812E-2,1.18E2,1.3E1,2.986E3,8E0,4.1597337E-3,2E0,-9.1785577E-4,-3.7232835E-2,2E0,1.816E3,3.416E3,1E0,9E0,4.9013656E-2,1.36833E-6,-3.6560662E-2,1.2E1,2.5411105E-2,6.2031128E-2,2.56924E-5,6.16471E-6,1.6005342E-1,1.12126306E-1,2.9633164E-2,4.491959E-2,-3.724776E-2,-4.6449166E-2,-2.2775311E-2,-3.9557572E-2,1.812838E-2,-4.6356853E-2,-2.2329025E-3,-2.952594E-2,9.568899E-3,-3.1763423E-2,-1.0465415E-3,-4.3461327E-3,4.731537E-2,1.8824076E-2,-2.5885195E-2,1.3357875E-3,7.6459154E-2,-3.4831714E-2,7.1606473E-3,1.2816517E-1,5.404538E-2,-4.491622E-2,-6.646011E-3,-3.329223E-2,2.4077361E-2,7.232047E-2,-9.614174E-3],"split_indices":[4,7,6,27,9,6,6,4,4,1,6,26,5,26,0,9,0,0,0,3,8,29,8,1,26,34,0,4,1,5,6,8,23,0,0,23,0,5,23,6,0,26,0,1,0,0,31,26,0,0,0,0,0,0,0,0,0,0,0,0,0,0,0,0,0,0,0,0,0,0,0,0,0,0,0,0,0,0,0],"split_type":[0,0,0,0,0,0,0,0,0,0,0,0,0,0,0,0,0,0,0,0,0,0,0,0,0,0,0,0,0,0,0,0,0,0,0,0,0,0,0,0,0,0,0,0,0,0,0,0,0,0,0,0,0,0,0,0,0,0,0,0,0,0,0,0,0,0,0,0,0,0,0,0,0,0,0,0,0,0,0],"sum_hessian":[1.1239084E3,8.568022E2,2.6710626E2,7.1500146E2,1.4180075E2,5.8501797E1,2.0860445E2,7.0950726E2,5.4941587E0,1.0568646E2,3.6114292E1,1.5303957E1,4.319784E1,7.8743978E0,2.0073006E2,5.425455E2,1.6696179E2,3.6958199E0,1.7983388E0,6.608237E1,3.9604095E1,9.482577E0,2.6631716E1,1.0366464E1,4.9374943E0,4.1216316E1,1.9815233E0,5.575175E0,2.2992227E0,5.3427594E2,8.269521E0,6.022874E1,1.06733055E2,1.0173075E0,2.6785123E0,6.3876842E1,2.205521E0,1.4728158E1,2.4875937E1,8.479818E0,1.0027587E0,2.4114897E1,2.5168197E0,8.100158E0,2.2663052E0,2.093054E0,2.8444402E0,4.0113724E1,1.1025945E0,3.9007924E0,1.6743824E0,1.0049789E0,1.2942438E0,5.2631287E2,7.963077E0,3.4937532E0,4.7757673E0,5.6092796E1,4.1359425E0,9.778459E1,8.9484625E0,5.386447E1,1.0012372E1,1.162819E0,1.0427021E0,1.8717947E0,1.2856363E1,9.477694E0,1.5398243E1,5.218639E0,3.2611794E0,1.6210222E1,7.904675E0,6.8304744E0,1.2696838E0,1.841302E0,1.0031381E0,3.4379562E1,5.7341576E0],"tree_param":{"num_deleted":"0","num_feature":"37","num_nodes":"79","size_leaf_vector":"1"}},{"base_weights":[-3.5946373E-2,-5.941741E-1,1.9105651E0,-8.370861E-1,2.6486194E-1,-8.033466E-2,2.0672226E0,-9.500999E-1,-6.5498704E-1,7.637482E-1,-4.0566662E-1,-3.737157E-1,8.909038E-1,1.1478572E0,2.1119473E0,-9.56524E-1,-4.752237E-1,-6.947679E-1,1.429695E-1,1.6218389E0,2.1496993E-1,-7.8224164E-1,6.7930166E-3,3.1815913E-2,-5.7308763E-1,1.0070663E-1,-3.650083E-1,1.3147712E-1,5.040486E-1,1.3282477E-2,2.1220963E0,-9.5882064E-1,-8.38443E-3,4.9227625E-2,-4.284261E-2,-4.349246E-1,-9.446483E-1,3.6861742E-1,2.3343723E0,5.61588E-1,-4.5695856E-1,-8.918858E-1,6.197546E-1,4.284985E-1,-4.6756875E-2,1.931724E-2,-8.131475E-1,-7.154266E-4,-2.6476642E-2,7.599936E-1,-3.1147394E-2,1.5479714E-1,2.0824583E0,-4.824612E-2,-3.3991564E-2,-2.671731E-2,1.399532E-2,-4.797547E-2,2.3129424E-2,-2.8078755E-2,3.262003E-2,1.2755808E-1,-3.226359E-2,1.977919E-2,1.4813401E-1,-4.9096864E-2,4.177162E-2,-7.3933327E-3,-4.56797E-2,-8.15245E-3,5.75776E-2,-2.7339235E-2,5.7695728E-2,3.632995E-2,-3.4426782E-2,-2.5471307E-3,-4.497669E-2,1.1459691E-2,9.058573E-2,-9.634144E-3,1.0482408E-1],"categories":[],"categories_nodes":[],"categories_segments":[],"categories_sizes":[],"default_left":[0,0,0,0,0,0,0,0,0,0,0,0,0,0,0,0,0,0,0,0,0,0,0,0,0,0,0,0,0,0,0,0,0,0,0,0,0,0,0,0,0,0,0,0,0,0,0,0,0,0,0,0,0,0,0,0,0,0,0,0,0,0,0,0,0,0,0,0,0,0,0,0,0,0,0,0,0,0,0,0,0],"id":10,"left_children":[1,3,5,7,9,11,13,15,17,19,21,23,25,27,29,31,33,35,-1,37,39,41,43,-1,45,-1,47,-1,49,-1,51,53,-1,-1,-1,55,57,59,61,63,65,67,69,71,-1,73,75,-1,-1,77,-1,-1,79,-1,-1,-1,-1,-1,-1,-1,-1,-1,-1,-1,-1,-1,-1,-1,-1,-1,-1,-1,-1,-1,-1,-1,-1,-1,-1,-1,-1],"loss_changes":[1.1942594E3,1.784432E2,7.656494E1,1.3084747E1,6.3544483E1,5.6987906E0,6.914734E0,7.9248047E-1,3.8096016E1,5.0855213E1,1.2632461E1,3.4188974E0,7.3148775E0,1.0815157E1,3.472351E0,5.680847E-1,4.9902515E0,1.6223999E1,0E0,3.6877747E1,1.5971483E1,7.086733E0,1.6206388E1,0E0,1.8919067E0,0E0,1.6832504E-1,0E0,3.3894176E0,0E0,1.8165283E0,2.6550293E-2,0E0,0E0,0E0,9.207275E0,3.1573105E0,4.723592E0,1.8929092E1,1.674899E1,1.6773525E1,5.08255E-1,1.716835E0,2.0561811E1,0E0,2.8940375E0,5.738764E-1,0E0,0E0,4.435254E0,0E0,0E0,7.06427E0,0E0,0E0,0E0,0E0,0E0,0E0,0E0,0E0,0E0,0E0,0E0,0E0,0E0,0E0,0E0,0E0,0E0,0E0,0E0,0E0,0E0,0E0,0E0,0E0,0E0,0E0,0E0,0E0],"parents":[2147483647,0,0,1,1,2,2,3,3,4,4,5,5,6,6,7,7,8,8,9,9,10,10,11,11,12,12,13,13,14,14,15,15,16,16,17,17,19,19,20,20,21,21,22,22,24,24,26,26,28,28,30,30,31,31,35,35,36,36,37,37,38,38,39,39,40,40,41,41,42,42,43,43,45,45,46,46,49,49,52,52],"right_children":[2,4,6,8,10,12,14,16,18,20,22,24,26,28,30,32,34,36,-1,38,40,42,44,-1,46,-1,48,-1,50,-1,52,54,-1,-1,-1,56,58,60,62,64,66,68,70,72,-1,74,76,-1,-1,78,-1,-1,80,-1,-1,-1,-1,-1,-1,-1,-1,-1,-1,-1,-1,-1,-1,-1,-1,-1,-1,-1,-1,-1,-1,-1,-1,-1,-1,-1,-1],"split_conditions":[1.2E1,1.12E3,1E1,5E0,1E0,3.882E3,1.3E1,3.097E3,1.14772E-3,2E0,3.1948881E-3,3.63E3,4.471E3,2E0,2.189142E-3,3.957E3,9.993515E-1,1E0,1.429695E-1,8E0,2.23604E-5,2.51902E-5,1.28E2,3.1815913E-2,2E0,1.0070663E-1,1.5582392E-3,1.3147712E-1,5.289E3,1.3282477E-2,2.4057738E-3,4.86E2,-8.38443E-3,4.9227625E-2,-4.284261E-2,2E0,5.119454E-3,1.798E3,1.01061E-4,1.15937E-5,4.8423E-5,1.5670911E-3,1.713796E-3,9E0,-4.6756875E-2,1.4798372E-3,4.612E3,-7.154266E-4,-2.6476642E-2,1E0,-3.1147394E-2,1.5479714E-1,2.503129E-3,-4.824612E-2,-3.3991564E-2,-2.671731E-2,1.399532E-2,-4.797547E-2,2.3129424E-2,-2.8078755E-2,3.262003E-2,1.2755808E-1,-3.226359E-2,1.977919E-2,1.4813401E-1,-4.9096864E-2,4.177162E-2,-7.3933327E-3,-4.56797E-2,-8.15245E-3,5.75776E-2,-2.7339235E-2,5.7695728E-2,3.632995E-2,-3.4426782E-2,-2.5471307E-3,-4.497669E-2,1.1459691E-2,9.058573E-2,-9.634144E-3,1.0482408E-1],"split_indices":[1,7,6,1,21,5,1,5,35,24,8,0,5,22,8,0,8,21,0,6,28,31,6,0,24,0,3,0,0,0,3,7,0,0,0,23,8,7,31,35,33,8,3,6,0,3,0,0,0,19,0,0,3,0,0,0,0,0,0,0,0,0,0,0,0,0,0,0,0,0,0,0,0,0,0,0,0,0,0,0,0],"split_type":[0,0,0,0,0,0,0,0,0,0,0,0,0,0,0,0,0,0,0,0,0,0,0,0,0,0,0,0,0,0,0,0,0,0,0,0,0,0,0,0,0,0,0,0,0,0,0,0,0,0,0,0,0,0,0,0,0,0,0,0,0,0,0,0,0,0,0,0,0,0,0,0,0,0,0,0,0,0,0,0,0],"sum_hessian":[1.0970376E3,8.530823E2,2.4395532E2,6.6504987E2,1.8803242E2,1.7831299E1,2.2612402E2,4.077659E2,2.57284E2,1.0773584E2,8.029658E1,1.416708E1,3.6642187E0,1.1727017E1,2.14397E2,4.0132254E2,6.443356E0,2.5519759E2,2.086395E0,4.126186E1,6.647398E1,4.150555E1,3.879103E1,1.9741689E0,1.2192911E1,1.6155901E0,2.0486286E0,2.6178486E0,9.109169E0,1.3206568E0,2.1307635E2,3.9994266E2,1.379878E0,1.0079503E0,5.4354057E0,1.2644828E2,1.2874931E2,1.550631E1,2.575555E1,4.396078E1,2.2513199E1,3.8832474E1,2.673077E0,2.717139E1,1.161964E1,3.7812665E0,8.411644E0,1.001278E0,1.0473505E0,7.6886864E0,1.420482E0,5.317899E0,2.0775845E2,3.8897675E2,1.0965921E1,1.11230385E2,1.5217895E1,1.27718704E2,1.0306069E0,3.3959804E0,1.211033E1,2.4142801E1,1.6127487E0,4.220744E1,1.7533418E0,1.6180698E1,6.3325014E0,1.322346E0,3.7510128E1,1.3618456E0,1.3112315E0,1.1694716E1,1.5476675E1,1.8781492E0,1.9031173E0,1.0181342E0,7.3935103E0,5.9192066E0,1.7694798E0,1.1946583E0,2.065638E2],"tree_param":{"num_deleted":"0","num_feature":"37","num_nodes":"81","size_leaf_vector":"1"}},{"base_weights":[-4.079747E-2,-5.9938765E-1,1.7651037E0,-8.451471E-1,2.4234477E-1,-1.5256128E-1,1.9267222E0,-8.569621E-1,1.4363959E0,7.40482E-1,-4.7371987E-1,-3.4122097E-1,6.552129E-2,1.0711218E0,1.9982982E0,-9.383144E-1,-7.246284E-1,1.0894686E-1,-4.459184E-3,1.5049702E0,2.2782105E-1,-7.34232E-1,-9.802421E-3,9.541271E-2,-8.0259407E-1,1.1930736E-1,6.394752E-1,2.7722242E0,1.9421482E0,-4.724366E-2,-4.82613E-1,-4.8749164E-1,-9.5634836E-1,4.2970905E-1,2.105557E0,-7.8924246E-2,1.1345316E0,-8.4354424E-1,5.4999864E-1,6.120127E-1,-4.650767E-2,1.2587613E0,-5.075716E-1,-4.4749495E-2,-1.006761E-3,1.0466548E0,-1.7097163E-1,3.2109153E0,1.5709125E-2,1.0441947E0,1.00288056E-1,4.090171E-2,-4.2725038E-2,-7.839664E-3,-3.3235196E-2,-4.819901E-2,-9.071847E-4,-1.9651143E-2,3.4627967E-2,1.3949968E-1,2.838563E-2,-3.2060795E-2,2.3806779E-2,8.149361E-2,-3.0500857E-2,-4.5646872E-2,-2.1995267E-2,7.967058E-2,-1.9104837E-2,-2.1804376E-2,8.614102E-2,-3.4301465E-3,9.0609774E-2,1.509838E-2,-4.249593E-2,9.64834E-2,2.2547314E-2,-3.953172E-2,2.6131067E-2,1.8275106E-1,5.9631087E-2,7.630712E-2,-3.2284312E-2],"categories":[],"categories_nodes":[],"categories_segments":[],"categories_sizes":[],"default_left":[0,0,0,0,0,0,0,0,0,0,0,0,0,0,0,0,0,0,0,0,0,0,0,0,0,0,0,0,0,0,0,0,0,0,0,0,0,0,0,0,0,0,0,0,0,0,0,0,0,0,0,0,0,0,0,0,0,0,0,0,0,0,0,0,0,0,0,0,0,0,0,0,0,0,0,0,0,0,0,0,0,0,0],"id":11,"left_children":[1,3,5,7,9,11,13,15,17,19,21,23,-1,25,27,29,31,-1,-1,33,35,37,39,41,43,-1,45,47,49,-1,51,53,55,57,59,61,63,65,67,69,-1,71,73,-1,-1,75,77,79,-1,81,-1,-1,-1,-1,-1,-1,-1,-1,-1,-1,-1,-1,-1,-1,-1,-1,-1,-1,-1,-1,-1,-1,-1,-1,-1,-1,-1,-1,-1,-1,-1,-1,-1],"loss_changes":[1.0830559E3,1.698241E2,7.8906555E1,1.8345062E1,6.672417E1,6.144489E0,1.2190186E1,6.1264954E0,4.322807E0,4.2818638E1,9.292637E0,3.9197824E0,0E0,9.9514675E0,3.949585E0,7.0407104E-1,1.30012665E1,0E0,0E0,2.7527878E1,1.8751871E1,7.3797646E0,1.6985575E1,8.141491E0,6.6027975E-1,0E0,5.653333E0,1.2135109E1,9.535217E0,0E0,4.3514843E0,7.113924E0,8.62648E-1,3.9561083E0,2.7880173E1,1.6245348E1,1.5707966E1,8.8108826E-1,4.9558954E0,2.1384312E1,0E0,3.0175753E0,2.406406E0,0E0,0E0,5.0118113E0,3.1669238E0,4.814781E0,0E0,1.3653852E1,0E0,0E0,0E0,0E0,0E0,0E0,0E0,0E0,0E0,0E0,0E0,0E0,0E0,0E0,0E0,0E0,0E0,0E0,0E0,0E0,0E0,0E0,0E0,0E0,0E0,0E0,0E0,0E0,0E0,0E0,0E0,0E0,0E0],"parents":[2147483647,0,0,1,1,2,2,3,3,4,4,5,5,6,6,7,7,8,8,9,9,10,10,11,11,13,13,14,14,15,15,16,16,19,19,20,20,21,21,22,22,23,23,24,24,26,26,27,27,28,28,30,30,31,31,32,32,33,33,34,34,35,35,36,36,37,37,38,38,39,39,41,41,42,42,45,45,46,46,47,47,49,49],"right_children":[2,4,6,8,10,12,14,16,18,20,22,24,-1,26,28,30,32,-1,-1,34,36,38,40,42,44,-1,46,48,50,-1,52,54,56,58,60,62,64,66,68,70,-1,72,74,-1,-1,76,78,80,-1,82,-1,-1,-1,-1,-1,-1,-1,-1,-1,-1,-1,-1,-1,-1,-1,-1,-1,-1,-1,-1,-1,-1,-1,-1,-1,-1,-1,-1,-1,-1,-1,-1,-1],"split_conditions":[1.1E1,1.12E3,2.1315468E-3,4.54392E-3,1E0,2E1,1.3E1,5E0,3E0,2E0,3.8610038E-3,1E0,6.552129E-2,2E0,2.8612304E-3,3.097E3,1E0,1.0894686E-1,-4.459184E-3,2.7491408E-3,4.570384E-3,2.51902E-5,4.225352E-2,2E0,2.2779044E-3,1.1930736E-1,8.99274E-7,1E0,4.045853E-3,-4.724366E-2,9.993515E-1,2E0,6.91E2,2.817E3,3E0,7E0,7.17703E-4,3E0,2E0,2.259E3,-4.650767E-2,1.2791813E-3,1.24031E-3,-4.4749495E-2,-1.006761E-3,1.2E1,3.5313002E-3,8.99285E-7,1.5709125E-2,1.15942E-5,1.00288056E-1,4.090171E-2,-4.2725038E-2,-7.839664E-3,-3.3235196E-2,-4.819901E-2,-9.071847E-4,-1.9651143E-2,3.4627967E-2,1.3949968E-1,2.838563E-2,-3.2060795E-2,2.3806779E-2,8.149361E-2,-3.0500857E-2,-4.5646872E-2,-2.1995267E-2,7.967058E-2,-1.9104837E-2,-2.1804376E-2,8.614102E-2,-3.4301465E-3,9.0609774E-2,1.509838E-2,-4.249593E-2,9.64834E-2,2.2547314E-2,-3.953172E-2,2.6131067E-2,1.8275106E-1,5.9631087E-2,7.630712E-2,-3.2284312E-2],"split_indices":[1,7,8,36,21,1,1,1,25,24,8,21,0,22,3,5,21,0,0,8,8,31,8,24,3,0,33,21,8,0,8,25,5,5,22,1,29,21,24,5,0,3,3,0,0,1,8,33,0,28,0,0,0,0,0,0,0,0,0,0,0,0,0,0,0,0,0,0,0,0,0,0,0,0,0,0,0,0,0,0,0,0,0],"split_type":[0,0,0,0,0,0,0,0,0,0,0,0,0,0,0,0,0,0,0,0,0,0,0,0,0,0,0,0,0,0,0,0,0,0,0,0,0,0,0,0,0,0,0,0,0,0,0,0,0,0,0,0,0,0,0,0,0,0,0,0,0,0,0,0,0,0,0,0,0,0,0,0,0,0,0,0,0,0,0,0,0,0,0],"sum_hessian":[1.0716034E3,8.189568E2,2.5264655E2,6.3387976E2,1.8507703E2,1.964205E1,2.330045E2,6.312353E2,2.6444743E0,1.091274E2,7.594962E1,1.8077614E1,1.5644366E0,1.9219908E1,2.1378459E2,3.8714615E2,2.4408914E2,1.4906605E0,1.1538136E0,4.30279E1,6.60995E1,4.8264236E1,2.768539E1,9.695345E0,8.382269E0,3.6307366E0,1.5589171E1,1.1189256E1,2.0259534E2,3.8059497E2,6.551196E0,1.2216854E2,1.2192059E2,1.6035036E1,2.6992867E1,5.007261E1,1.6026892E1,4.479453E1,3.469705E0,1.6722334E1,1.09630575E1,2.9384968E0,6.756848E0,7.368366E0,1.0139033E0,1.0182094E1,5.407078E0,9.234813E0,1.9544436E0,1.4554901E1,1.8804044E2,1.1899083E0,5.361288E0,4.3282753E1,7.888579E1,1.20909584E2,1.0110099E0,3.7626264E0,1.22724085E1,1.8115927E1,8.87694E0,2.4797155E1,2.5275455E1,1.253382E1,3.4930713E0,3.714656E1,7.647969E0,1.3023381E0,2.167367E0,8.9165535E0,7.80578E0,1.1224465E0,1.8160503E0,2.0432277E0,4.71362E0,3.1997914E0,6.982302E0,2.781842E0,2.6252358E0,6.90458E0,2.3302324E0,1.14004345E1,3.1544673E0],"tree_param":{"num_deleted":"0","num_feature":"37","num_nodes":"83","size_leaf_vector":"1"}},{"base_weights":[-2.4630707E-2,-6.26238E-1,1.6672237E0,-7.362607E-1,8.5615057E-1,1.0209073E0,9.496472E-2,-8.386887E-1,-2.3498413E-1,-4.590293E-1,1.2939422E0,7.6490587E-1,2.3259747E0,-9.1346383E-1,-6.05674E-1,2.0845155E-1,-6.9049E-1,-7.1355087E-1,8.9316174E-2,1.6164966E0,-4.2425707E-2,1.6154997E-1,6.27875E-1,1.5839742E-1,3.3714104E-2,-8.3591574E-1,-4.949635E-2,-6.4225215E-1,9.9532455E-2,7.590177E-1,-3.662257E-1,-5.2864844E-1,-4.8321497E-2,-4.381891E-2,-2.084655E-1,4.3350264E-2,-4.8435876E-1,-3.5054322E-2,1.7777673E0,1.0432035E0,-8.9263216E-2,3.246612E-2,-3.324374E-2,-4.5759488E-2,-2.9155461E-2,-1.9370673E-2,-4.6949193E-2,2.058324E-2,9.414625E-2,-4.179007E-2,2.8500577E-2,1.8792818E-1,-3.701242E-2,1.01219E-2,-2.8292706E-2,-3.1132871E-2,-5.092907E-3,1.1949487E-1,6.363381E-2,1.0536494E-1,1.6619593E-2,-1.40675455E-2,7.608618E-2],"categories":[],"categories_nodes":[],"categories_segments":[],"categories_sizes":[],"default_left":[0,0,0,0,0,0,0,0,0,0,0,0,0,0,0,0,0,0,0,0,0,0,0,0,0,0,0,0,0,0,0,0,0,0,0,0,0,0,0,0,0,0,0,0,0,0,0,0,0,0,0,0,0,0,0,0,0,0,0,0,0,0,0],"id":12,"left_children":[1,3,5,7,9,11,-1,13,15,17,19,21,23,25,27,29,31,33,35,37,-1,-1,39,-1,41,43,-1,45,-1,47,49,51,-1,-1,53,-1,55,-1,57,59,61,-1,-1,-1,-1,-1,-1,-1,-1,-1,-1,-1,-1,-1,-1,-1,-1,-1,-1,-1,-1,-1,-1],"loss_changes":[1.074652E3,1.27655914E2,3.9602783E1,3.7056793E1,3.1843391E1,2.3390472E1,0E0,9.937042E0,2.528986E1,2.0584893E0,2.969197E1,1.9758202E1,2.2791763E1,1.8635559E0,1.5451279E1,2.0480011E1,2.2419548E0,6.2926626E-1,2.8379054E0,1.4687775E1,0E0,0E0,1.8654623E1,0E0,2.237091E0,4.1107635E0,0E0,1.0821686E1,0E0,1.2082289E1,1.4507578E1,4.0032276E1,0E0,0E0,6.606902E-1,0E0,1.3550782E-1,0E0,7.4415283E0,2.9208256E1,7.7857523E0,0E0,0E0,0E0,0E0,0E0,0E0,0E0,0E0,0E0,0E0,0E0,0E0,0E0,0E0,0E0,0E0,0E0,0E0,0E0,0E0,0E0,0E0],"parents":[2147483647,0,0,1,1,2,2,3,3,4,4,5,5,7,7,8,8,9,9,10,10,11,11,12,12,13,13,14,14,15,15,16,16,17,17,18,18,19,19,22,22,24,24,25,25,27,27,29,29,30,30,31,31,34,34,36,36,38,38,39,39,40,40],"right_children":[2,4,6,8,10,12,-1,14,16,18,20,22,24,26,28,30,32,34,36,38,-1,-1,40,-1,42,44,-1,46,-1,48,50,52,-1,-1,54,-1,56,-1,58,60,62,-1,-1,-1,-1,-1,-1,-1,-1,-1,-1,-1,-1,-1,-1,-1,-1,-1,-1,-1,-1,-1,-1],"split_conditions":[6.3E1,1E0,1.3E1,1.702E3,9E0,2E0,9.496472E-2,3.2E1,1E0,4.0241447E-3,4.225352E-2,2E0,3E0,1E0,1.14772E-3,0E0,2.7E1,3E0,2E0,3.3830847E-3,-4.2425707E-2,1.6154997E-1,3E0,1.5839742E-1,3E0,3.483E3,-4.949635E-2,1E0,9.9532455E-2,2E0,2.0294266E-3,1E0,-4.8321497E-2,-4.381891E-2,3E0,4.3350264E-2,1.27E3,-3.5054322E-2,2E0,3E0,3E0,3.246612E-2,-3.324374E-2,-4.5759488E-2,-2.9155461E-2,-1.9370673E-2,-4.6949193E-2,2.058324E-2,9.414625E-2,-4.179007E-2,2.8500577E-2,1.8792818E-1,-3.701242E-2,1.01219E-2,-2.8292706E-2,-3.1132871E-2,-5.092907E-3,1.1949487E-1,6.363381E-2,1.0536494E-1,1.6619593E-2,-1.40675455E-2,7.608618E-2],"split_indices":[4,9,6,5,6,23,0,4,21,3,8,22,25,21,35,26,6,25,25,8,0,0,24,0,23,2,0,21,0,23,3,19,0,0,24,0,2,0,25,22,21,0,0,0,0,0,0,0,0,0,0,0,0,0,0,0,0,0,0,0,0,0,0],"split_type":[0,0,0,0,0,0,0,0,0,0,0,0,0,0,0,0,0,0,0,0,0,0,0,0,0,0,0,0,0,0,0,0,0,0,0,0,0,0,0,0,0,0,0,0,0,0,0,0,0,0,0,0,0,0,0,0,0,0,0,0,0,0,0],"sum_hessian":[1.0537988E3,7.7783716E2,2.759616E2,7.245635E2,5.327371E1,7.433576E1,2.0162585E2,6.01071E2,1.23492455E2,1.3292599E1,3.9981106E1,6.347135E1,1.08644085E1,4.5283466E2,1.4823636E2,6.285013E1,6.0642326E1,8.872865E0,4.419734E0,3.4962826E1,5.0182824E0,2.1526308E0,6.131872E1,7.6664248E0,3.1979842E0,2.3074637E2,2.2208829E2,1.4691913E2,1.3172318E0,3.1934599E1,3.091553E1,4.0061604E1,2.0580723E1,6.15389E0,2.7189748E0,1.6591829E0,2.7605507E0,2.0568638E0,3.290596E1,3.8542355E1,2.2776367E1,1.7374432E0,1.4605411E0,1.7366814E2,5.7078224E1,8.0279335E1,6.6639786E1,2.5438805E1,6.495795E0,2.0660433E1,1.0255095E1,1.0958601E0,3.8965744E1,1.4664751E0,1.2524998E0,1.5663531E0,1.1941978E0,1.3189601E1,1.971636E1,1.4648579E1,2.3893776E1,2.1087349E1,1.6890172E0],"tree_param":{"num_deleted":"0","num_feature":"37","num_nodes":"63","size_leaf_vector":"1"}},{"base_weights":[-4.862357E-2,-5.889826E-1,1.5996346E0,-8.247878E-1,1.5056765E-1,-1.4613126E-1,1.7193977E0,-8.382872E-1,4.823955E-1,-1.8602678E-1,7.870221E-1,8.863983E-2,-4.4302475E-1,1.1675054E0,9.083941E-2,-9.3566936E-1,-6.824522E-1,-5.5171895E-1,1.6627889E0,-4.9664533E-1,2.5681084E-1,3.1973115E-1,1.3243814E0,-7.63841E-1,-1.0057968E-1,1.565379E0,2.7535662E-1,-9.4614524E-1,1.8546173E-2,-7.261364E-1,-3.1210175E-1,-3.5440214E-2,-9.891713E-4,1.2291806E-1,1.30600035E-2,4.1682947E-1,-5.739009E-1,-2.2122687E-1,7.134335E-1,1.4013866E-1,1.15319826E-1,1.6486118E0,-3.990846E-2,-2.2816323E-3,-4.3466892E-2,-3.4454077E-2,1.8511353E-1,1.7175075E0,8.5773185E-2,-1.6468053E-1,1.1405646E0,-4.782771E-2,-1.6034786E-2,-3.574316E-2,5.0955605E-2,-3.67068E-2,1.4739732E-2,-3.8059905E-2,1.7580213E-1,7.1872965E-2,-3.6754806E-2,-3.3921856E-2,-8.935639E-3,-3.1135518E-2,1.3448814E-3,3.5767008E-3,5.4220658E-2,1.9997701E-2,-3.92916E-2,9.0685755E-2,2.8048913E-4,2.7518097E-2,-3.0957604E-2,6.2333256E-2,1.2891474E-1,-1.0481866E-2,1.8955141E-2,-2.0026555E-2,4.4978328E-2,-5.9030964E-3,9.398891E-2],"categories":[],"categories_nodes":[],"categories_segments":[],"categories_sizes":[],"default_left":[0,0,0,0,0,0,0,0,0,0,0,0,0,0,0,0,0,0,0,0,0,0,0,0,0,0,0,0,0,0,0,0,0,0,0,0,0,0,0,0,0,0,0,0,0,0,0,0,0,0,0,0,0,0,0,0,0,0,0,0,0,0,0,0,0,0,0,0,0,0,0,0,0,0,0,0,0,0,0,0,0],"id":13,"left_children":[1,3,5,7,9,11,13,15,17,19,21,-1,23,25,-1,27,29,31,33,35,37,39,41,43,45,47,49,51,53,55,57,-1,-1,-1,-1,59,61,63,65,67,-1,69,-1,-1,-1,-1,71,73,75,77,79,-1,-1,-1,-1,-1,-1,-1,-1,-1,-1,-1,-1,-1,-1,-1,-1,-1,-1,-1,-1,-1,-1,-1,-1,-1,-1,-1,-1,-1,-1],"loss_changes":[9.1268536E2,1.3469568E2,5.315033E1,1.0732025E1,4.029412E1,1.0564272E1,1.0609192E1,8.157867E0,8.994505E0,1.7100101E1,1.5902931E1,0E0,1.6441247E0,1.3172703E1,0E0,3.5565186E0,3.439659E0,3.4343553E-1,3.0811825E0,5.38113E0,1.1405329E1,1.2555082E1,2.1909252E1,5.6163883E-1,1.5951017E0,5.7704926E0,5.1500344E0,1.973175E0,4.2694364E0,1.8657837E0,4.6797497E1,0E0,0E0,0E0,0E0,8.417539E0,2.6714363E0,2.600498E0,6.254486E0,8.534276E0,0E0,7.1199265E0,0E0,0E0,0E0,0E0,2.2984283E0,6.4265366E0,3.83078E-1,2.7482061E0,4.427489E0,0E0,0E0,0E0,0E0,0E0,0E0,0E0,0E0,0E0,0E0,0E0,0E0,0E0,0E0,0E0,0E0,0E0,0E0,0E0,0E0,0E0,0E0,0E0,0E0,0E0,0E0,0E0,0E0,0E0,0E0],"parents":[2147483647,0,0,1,1,2,2,3,3,4,4,5,5,6,6,7,7,8,8,9,9,10,10,12,12,13,13,15,15,16,16,17,17,18,18,19,19,20,20,21,21,22,22,23,23,24,24,25,25,26,26,27,27,28,28,29,29,30,30,35,35,36,36,37,37,38,38,39,39,41,41,46,46,47,47,48,48,49,49,50,50],"right_children":[2,4,6,8,10,12,14,16,18,20,22,-1,24,26,-1,28,30,32,34,36,38,40,42,44,46,48,50,52,54,56,58,-1,-1,-1,-1,60,62,64,66,68,-1,70,-1,-1,-1,-1,72,74,76,78,80,-1,-1,-1,-1,-1,-1,-1,-1,-1,-1,-1,-1,-1,-1,-1,-1,-1,-1,-1,-1,-1,-1,-1,-1,-1,-1,-1,-1,-1,-1],"split_conditions":[1.1E1,1.12E3,1.814059E-3,6.44176E-4,1E0,3.623E3,1.3E1,5E0,3.581E3,7E0,5.038291E-3,8.863983E-2,1E0,6.84781E-7,9.083941E-2,1E0,2E0,1.65782E-4,1.42543E-2,1E0,2.4752475E-3,4.8423E-5,4.225352E-2,6.453E3,7.726E3,4.505E3,3.97351E-3,3.097E3,1E1,6.6225166E-3,2E0,-3.5440214E-2,-9.891713E-4,1.2291806E-1,1.30600035E-2,5.449591E-3,3E0,2.013809E-3,1E0,2.23604E-5,1.15319826E-1,3E0,-3.990846E-2,-2.2816323E-3,-4.3466892E-2,-3.4454077E-2,0E0,5.105E3,5.009E3,0E0,0E0,-4.782771E-2,-1.6034786E-2,-3.574316E-2,5.0955605E-2,-3.67068E-2,1.4739732E-2,-3.8059905E-2,1.7580213E-1,7.1872965E-2,-3.6754806E-2,-3.3921856E-2,-8.935639E-3,-3.1135518E-2,1.3448814E-3,3.5767008E-3,5.4220658E-2,1.9997701E-2,-3.92916E-2,9.0685755E-2,2.8048913E-4,2.7518097E-2,-3.0957604E-2,6.2333256E-2,1.2891474E-1,-1.0481866E-2,1.8955141E-2,-2.0026555E-2,4.4978328E-2,-5.9030964E-3,9.398891E-2],"split_indices":[1,7,8,27,9,2,6,1,0,1,8,0,23,26,0,9,23,31,28,22,8,33,8,0,0,5,8,5,6,8,22,0,0,0,0,8,25,8,23,28,0,23,0,0,0,0,26,0,5,32,35,0,0,0,0,0,0,0,0,0,0,0,0,0,0,0,0,0,0,0,0,0,0,0,0,0,0,0,0,0,0],"split_type":[0,0,0,0,0,0,0,0,0,0,0,0,0,0,0,0,0,0,0,0,0,0,0,0,0,0,0,0,0,0,0,0,0,0,0,0,0,0,0,0,0,0,0,0,0,0,0,0,0,0,0,0,0,0,0,0,0,0,0,0,0,0,0,0,0,0,0,0,0,0,0,0,0,0,0,0,0,0,0,0,0],"sum_hessian":[1.02268164E3,7.7067053E2,2.5201115E2,5.842632E2,1.8640732E2,1.6164444E1,2.3584671E2,5.786462E2,5.6169944E0,1.2238871E2,6.401861E1,1.4997667E0,1.4664677E1,3.7324436E1,1.9852228E2,3.530308E2,2.2561542E2,3.277901E0,2.3390934E0,7.1861534E1,5.0527176E1,3.509488E1,2.8923727E1,6.9361057E0,7.728571E0,2.5290817E1,1.2033619E1,3.492055E2,3.8252838E0,2.0095177E2,2.4663649E1,2.2738984E0,1.0040026E0,1.011157E0,1.3279365E0,5.260895E0,6.660064E1,2.4936596E1,2.5590578E1,3.3167145E1,1.9277358E0,2.5284655E1,3.6390734E0,1.0718241E0,5.8642817E0,2.0643127E0,5.6642585E0,2.2787128E1,2.5036883E0,8.513428E0,3.520191E0,3.429683E2,6.2371926E0,2.3720934E0,1.4531901E0,1.9966815E2,1.2836151E0,2.2791084E1,1.8725646E0,2.6579876E0,2.602907E0,5.2101788E1,1.4498854E1,8.948157E0,1.5988439E1,9.809757E0,1.5780821E1,2.6343554E1,6.8235893E0,2.2881424E1,2.403231E0,4.112368E0,1.5518904E0,1.6312586E1,6.4745436E0,1.3895745E0,1.1141137E0,7.47952E0,1.0339078E0,1.6134049E0,1.9067861E0],"tree_param":{"num_deleted":"0","num_feature":"37","num_nodes":"81","size_leaf_vector":"1"}},{"base_weights":[-2.8330961E-2,-5.7012624E-1,1.5301689E0,-8.2976735E-1,1.2379585E-1,1.526355E-1,1.6733522E0,-8.449614E-1,1.3035635E0,3.7229663E-1,-4.930627E-2,5.778265E-1,-5.4587907E-1,1.754069E0,1.1892656E0,-7.322549E-1,-4.8427265E-2,-6.985033E-2,1.3577029E-1,2.7599153E-1,3.3440666E0,9.6803385E-1,-3.9352965E-2,-7.068176E-1,2.3280272E-2,1.8128104E0,1.3448094E0,2.4924034E-1,8.4158786E-2,-8.6331964E-1,-4.5310584E-1,-2.7403822E-2,2.3675023E-2,8.7966084E-2,1.3591527E0,2.3039015E-1,8.206307E-2,1.6113579E0,4.903028E-2,-3.898273E-2,-8.574149E-3,2.5011468E0,1.7534983E0,1.1245505E-1,1.5907496E0,-6.6196936E-1,1.6143748E0,-4.4101838E-2,2.0983277E-2,-3.7442637E-3,-3.2783777E-2,-6.7556105E-3,4.5334753E-2,9.058032E-2,-2.3631154E-2,1.2652567E-1,1.5695658E-2,-3.6970634E-2,3.728458E-2,1.3410687E-1,1.9405045E-2,-1.0409472E-2,8.8739656E-2,4.364275E-2,-4.920974E-2,1.5711993E-2,8.219337E-2,-4.1164715E-2,9.384713E-3,1.1566002E-2,9.541484E-2],"categories":[],"categories_nodes":[],"categories_segments":[],"categories_sizes":[],"default_left":[0,0,0,0,0,0,0,0,0,0,0,0,0,0,0,0,0,0,0,0,0,0,0,0,0,0,0,0,0,0,0,0,0,0,0,0,0,0,0,0,0,0,0,0,0,0,0,0,0,0,0,0,0,0,0,0,0,0,0,0,0,0,0,0,0,0,0,0,0,0,0],"id":14,"left_children":[1,3,5,7,9,11,13,15,17,19,-1,21,23,25,27,29,-1,31,-1,33,35,37,-1,39,-1,41,43,45,-1,47,49,-1,-1,51,53,-1,-1,55,57,-1,-1,59,61,63,65,67,69,-1,-1,-1,-1,-1,-1,-1,-1,-1,-1,-1,-1,-1,-1,-1,-1,-1,-1,-1,-1,-1,-1,-1,-1],"loss_changes":[8.562464E2,1.3566705E2,5.1340454E1,1.8853912E1,5.7114513E1,7.957395E0,7.1688843E0,6.8736877E0,8.46236E0,4.739621E1,0E0,9.539073E0,1.9976871E0,2.3919067E0,1.6738438E1,1.0176346E1,0E0,1.0747875E0,0E0,3.3407753E1,3.6478767E0,7.763274E0,0E0,2.2659922E-1,0E0,2.6696167E0,8.637882E0,1.8362783E1,0E0,5.0635834E0,7.182579E0,0E0,0E0,2.593726E1,2.097985E1,0E0,0E0,8.473251E0,4.118054E0,0E0,0E0,3.3052063E0,7.155548E0,5.7921257E0,1.1225777E0,1.3945923E0,1.9391212E0,0E0,0E0,0E0,0E0,0E0,0E0,0E0,0E0,0E0,0E0,0E0,0E0,0E0,0E0,0E0,0E0,0E0,0E0,0E0,0E0,0E0,0E0,0E0,0E0],"parents":[2147483647,0,0,1,1,2,2,3,3,4,4,5,5,6,6,7,7,8,8,9,9,11,11,12,12,13,13,14,14,15,15,17,17,19,19,20,20,21,21,23,23,25,25,26,26,27,27,29,29,30,30,33,33,34,34,37,37,38,38,41,41,42,42,43,43,44,44,45,45,46,46],"right_children":[2,4,6,8,10,12,14,16,18,20,-1,22,24,26,28,30,-1,32,-1,34,36,38,-1,40,-1,42,44,46,-1,48,50,-1,-1,52,54,-1,-1,56,58,-1,-1,60,62,64,66,68,70,-1,-1,-1,-1,-1,-1,-1,-1,-1,-1,-1,-1,-1,-1,-1,-1,-1,-1,-1,-1,-1,-1,-1,-1],"split_conditions":[1.1E1,1.9120459E-3,1E1,1.59359E-3,4.225352E-2,3E0,1E0,1E0,7E0,2.14688E-3,-4.930627E-2,0E0,1.7E1,2.52067E-5,1.6E1,6E0,-4.8427265E-2,9.2367E-3,1.3577029E-1,1.4E1,5.586592E-3,1E0,-3.9352965E-2,1.117E4,2.3280272E-2,3.143242E-3,4.010025E-3,3E0,8.4158786E-2,7E0,2E0,-2.7403822E-2,2.3675023E-2,9E0,2.51927E-5,2.3039015E-1,8.206307E-2,3E0,3E0,-3.898273E-2,-8.574149E-3,8.99525E-7,3.3444816E-3,3E0,2.055E3,2E0,1.3E1,-4.4101838E-2,2.0983277E-2,-3.7442637E-3,-3.2783777E-2,-6.7556105E-3,4.5334753E-2,9.058032E-2,-2.3631154E-2,1.2652567E-1,1.5695658E-2,-3.6970634E-2,3.728458E-2,1.3410687E-1,1.9405045E-2,-1.0409472E-2,8.8739656E-2,4.364275E-2,-4.920974E-2,1.5711993E-2,8.219337E-2,-4.1164715E-2,9.384713E-3,1.1566002E-2,9.541484E-2],"split_indices":[1,8,6,32,8,24,21,21,1,30,0,31,1,28,6,1,0,34,0,6,8,21,0,2,0,8,8,21,0,6,25,0,0,1,31,0,0,22,22,0,0,33,8,24,2,23,1,0,0,0,0,0,0,0,0,0,0,0,0,0,0,0,0,0,0,0,0,0,0,0,0],"split_type":[0,0,0,0,0,0,0,0,0,0,0,0,0,0,0,0,0,0,0,0,0,0,0,0,0,0,0,0,0,0,0,0,0,0,0,0,0,0,0,0,0,0,0,0,0,0,0,0,0,0,0,0,0,0,0,0,0,0,0,0,0,0,0,0,0,0,0,0,0,0,0],"sum_hessian":[1.01201086E3,7.5142163E2,2.6058926E2,5.466782E2,2.0474341E2,2.4730362E1,2.3585889E2,5.434118E2,3.2663758E0,1.67832E2,3.691141E1,1.5480217E1,9.250144E0,1.9990349E2,3.5955406E1,2.8783575E2,2.5557608E2,2.137541E0,1.1288348E0,1.6362242E2,4.209583E0,1.2264637E1,3.21558E0,8.240237E0,1.0099068E0,1.7181345E2,2.8090048E1,1.2902876E1,2.305253E1,1.9444719E2,9.3388565E1,1.1322778E0,1.0052632E0,1.4034177E2,2.328065E1,1.4370611E0,2.7725215E0,6.771237E0,5.4934E0,6.851626E0,1.3886118E0,1.03642E1,1.6144923E2,4.9157104E0,2.3174337E1,8.046817E0,4.8560586E0,1.9195926E2,2.4879267E0,3.3050053E1,6.033851E1,1.109471E2,2.9394672E1,1.8678114E1,4.6025352E0,3.407127E0,3.3641098E0,2.5481632E0,2.945237E0,9.298429E0,1.0657705E0,1.6395041E0,1.5980974E2,3.023402E0,1.8923084E0,1.2020853E0,2.1972252E1,6.7888575E0,1.2579597E0,1.1643244E0,3.6917343E0],"tree_param":{"num_deleted":"0","num_feature":"37","num_nodes":"71","size_leaf_vector":"1"}},{"base_weights":[-2.7784111E-2,-5.846597E-1,1.4130509E0,-7.7857363E-1,2.0299934E-1,7.782898E-1,8.299636E-2,-8.62079E-1,-5.218088E-1,6.8915415E-1,-5.0271213E-1,1.0855873E0,-1.1959915E-1,-8.943715E-1,-4.6881258E-1,-5.715727E-1,1.05326615E-1,3.1324682E-1,1.5425397E0,-6.1962515E-1,9.2887807E-1,4.528376E-1,1.4662877E0,-5.252733E-1,1.2085843E0,-8.06704E-1,-4.922108E-2,2.0133016E0,-4.8858058E-2,-3.2610482E-1,-8.688289E-1,9.6680224E-1,-1.3931495E-1,2.0205317E0,3.5543782E-1,-7.9751205E-1,1.355934E-1,1.23021476E-1,-3.4346163E-2,1.4632945E-1,9.549819E-3,2.033758E0,3.32814E-1,-7.412367E-1,6.483363E-2,1.9895972E0,-2.9967383E-2,-4.4074927E-2,-2.838835E-2,1.8872012E-1,-9.414411E-4,-3.6099877E-2,-1.0184041E-3,-4.572146E-2,4.7868483E-2,2.8926197E-2,1.3294345E-1,-2.5971964E-2,3.705169E-2,1.08545594E-1,3.6977928E-2,-4.1945223E-2,6.0280558E-2,-4.728515E-2,-1.08069135E-2,-2.673468E-2,4.1167464E-2,5.6604005E-2,-1.7002298E-2,6.0586262E-2,1.1872488E-1,-2.0503283E-4,6.9488265E-2,-4.1094873E-2,-1.724065E-2,8.9924876E-4,1.6887005E-1],"categories":[],"categories_nodes":[],"categories_segments":[],"categories_sizes":[],"default_left":[0,0,0,0,0,0,0,0,0,0,0,0,0,0,0,0,0,0,0,0,0,0,0,0,0,0,0,0,0,0,0,0,0,0,0,0,0,0,0,0,0,0,0,0,0,0,0,0,0,0,0,0,0,0,0,0,0,0,0,0,0,0,0,0,0,0,0,0,0,0,0,0,0,0,0,0,0],"id":15,"left_children":[1,3,5,7,9,11,-1,13,15,17,19,21,23,25,27,29,-1,31,33,35,37,39,41,43,45,47,-1,49,-1,51,53,55,57,59,61,63,65,-1,-1,-1,67,69,71,73,-1,75,-1,-1,-1,-1,-1,-1,-1,-1,-1,-1,-1,-1,-1,-1,-1,-1,-1,-1,-1,-1,-1,-1,-1,-1,-1,-1,-1,-1,-1,-1,-1],"loss_changes":[7.880532E2,1.0834891E2,4.1613037E1,1.1741913E1,4.8628536E1,2.1803127E1,0E0,5.0102234E0,1.9787117E1,2.6382801E1,1.027989E1,1.345694E1,1.1911721E1,2.3162231E0,4.555451E1,9.948284E0,0E0,1.7701817E1,1.36687355E1,7.389965E0,1.3513499E1,2.5706026E1,2.2577095E1,7.5437346E0,8.534685E0,3.166275E0,0E0,2.2255709E1,0E0,9.475052E0,6.106823E0,1.4509851E1,1.2421038E1,1.8354492E0,9.634101E0,3.5876923E0,5.5978107E0,0E0,0E0,0E0,8.588533E0,3.8159714E0,4.72655E0,2.151928E-1,0E0,1.05083475E1,0E0,0E0,0E0,0E0,0E0,0E0,0E0,0E0,0E0,0E0,0E0,0E0,0E0,0E0,0E0,0E0,0E0,0E0,0E0,0E0,0E0,0E0,0E0,0E0,0E0,0E0,0E0,0E0,0E0,0E0,0E0],"parents":[2147483647,0,0,1,1,2,2,3,3,4,4,5,5,7,7,8,8,9,9,10,10,11,11,12,12,13,13,14,14,15,15,17,17,18,18,19,19,20,20,21,21,22,22,23,23,24,24,25,25,27,27,29,29,30,30,31,31,32,32,33,33,34,34,35,35,36,36,40,40,41,41,42,42,43,43,45,45],"right_children":[2,4,6,8,10,12,-1,14,16,18,20,22,24,26,28,30,-1,32,34,36,38,40,42,44,46,48,-1,50,-1,52,54,56,58,60,62,64,66,-1,-1,-1,68,70,72,74,-1,76,-1,-1,-1,-1,-1,-1,-1,-1,-1,-1,-1,-1,-1,-1,-1,-1,-1,-1,-1,-1,-1,-1,-1,-1,-1,-1,-1,-1,-1,-1,-1],"split_conditions":[6.3E1,1.753E3,1.3E1,3.2E1,1E0,1E0,8.299636E-2,7E0,1.14772E-3,1.1E1,1.42543E-2,1E0,3E0,1E0,3.0690538E-2,1E0,1.05326615E-1,2E0,2.69789E-6,3E0,2.2614975E-2,3E0,3E0,6.6350712E-3,4E0,3.529E3,-4.922108E-2,2E0,-4.8858058E-2,2.497E3,5.038291E-3,2E0,3.596E3,1E0,3E0,2.51902E-5,9E0,1.23021476E-1,-3.4346163E-2,1.4632945E-1,1E0,2E0,1.15937E-5,3.736E3,6.483363E-2,2E0,-2.9967383E-2,-4.4074927E-2,-2.838835E-2,1.8872012E-1,-9.414411E-4,-3.6099877E-2,-1.0184041E-3,-4.572146E-2,4.7868483E-2,2.8926197E-2,1.3294345E-1,-2.5971964E-2,3.705169E-2,1.08545594E-1,3.6977928E-2,-4.1945223E-2,6.0280558E-2,-4.728515E-2,-1.08069135E-2,-2.673468E-2,4.1167464E-2,5.6604005E-2,-1.7002298E-2,6.0586262E-2,1.1872488E-1,-2.0503283E-4,6.9488265E-2,-4.1094873E-2,-1.724065E-2,8.9924876E-4,1.6887005E-1],"split_indices":[4,7,6,4,21,21,0,6,35,6,28,23,21,21,8,21,0,24,28,21,8,22,24,3,21,2,0,24,0,2,8,23,2,19,25,28,6,0,0,0,25,22,35,5,0,24,0,0,0,0,0,0,0,0,0,0,0,0,0,0,0,0,0,0,0,0,0,0,0,0,0,0,0,0,0,0,0],"split_type":[0,0,0,0,0,0,0,0,0,0,0,0,0,0,0,0,0,0,0,0,0,0,0,0,0,0,0,0,0,0,0,0,0,0,0,0,0,0,0,0,0,0,0,0,0,0,0,0,0,0,0,0,0,0,0,0,0,0,0,0,0,0,0,0,0,0,0,0,0,0,0,0,0,0,0,0,0],"sum_hessian":[9.8013226E2,7.073422E2,2.7279004E2,5.67613E2,1.3972925E2,7.75495E1,1.9524054E2,4.2653674E2,1.4107626E2,8.274845E1,5.6980793E1,5.762025E1,1.992925E1,3.9299252E2,3.3544228E1,1.3922281E2,1.8534509E0,5.8393703E1,2.4354746E1,5.320306E1,3.7777324E0,2.2467407E1,3.5152843E1,1.5729441E1,4.19981E0,2.0417645E2,1.8881606E2,5.19893E0,2.8345297E1,7.74025E1,6.1820312E1,2.3426558E1,3.4967144E1,1.6862795E1,7.4919505E0,4.301512E1,1.0187941E1,1.6710669E0,2.1066654E0,2.5629501E0,1.9904457E1,2.289584E1,1.2257004E1,1.4592848E1,1.1365931E0,2.862674E0,1.3371359E0,1.5345207E2,5.0724377E1,2.3258884E0,2.8730416E0,3.3135048E1,4.4267452E1,6.080137E1,1.0189432E0,2.0145643E1,3.280914E0,2.4708336E1,1.025881E1,1.4469417E1,2.3933778E0,3.1208982E0,4.3710523E0,3.3778408E1,9.236713E0,5.2722034E0,4.9157376E0,4.195313E0,1.5709144E1,8.044555E0,1.4851285E1,1.004968E1,2.2073238E0,1.1233813E1,3.3590348E0,1.6010575E0,1.2616165E0],"tree_param":{"num_deleted":"0","num_feature":"37","num_nodes":"77","size_leaf_vector":"1"}},{"base_weights":[-3.6014985E-2,-5.809355E-1,1.3422936E0,-7.937605E-1,9.9620916E-2,7.0437324E-1,7.98574E-2,-9.161039E-1,-6.1865157E-1,3.0413622E-1,-4.869758E-2,4.9637988E-1,1.7287675E0,-9.290199E-1,-5.1878375E-1,-3.433368E-1,-9.156154E-1,-5.693357E-3,1.443878E0,4.1769594E-1,1.3855287E-1,2.3061478E0,1.1706555E-1,-9.3803024E-1,-2.9374498E-1,4.2224807E-1,-4.4791613E-2,-3.92893E-1,1.6129581E0,-9.430503E-1,4.755714E-2,3.0676934E-1,-5.0440174E-1,1.8314444E0,4.2804956E-1,1.0972342E0,1.8410186E-1,1.4456238E0,1.4422095E-1,6.7161584E-1,-3.243325E-2,-4.7060113E-2,-3.3688769E-3,3.439236E-2,-3.864857E-2,-3.1730097E-2,6.655052E-2,-2.5408208E-2,2.0192707E-2,1.22353934E-1,-1.5596126E-3,-2.8360114E-2,-4.891688E-2,-1.0724613E-2,4.0183622E-2,-2.8985133E-2,4.261003E-2,2.0243648E-2,9.963386E-2,-2.8648296E-2,7.1288005E-2,1.0277455E-1,1.4841962E-2,-7.6931464E-3,4.3985907E-2,8.813198E-2,6.9463043E-3,4.2011987E-2,9.3943495E-3],"categories":[],"categories_nodes":[],"categories_segments":[],"categories_sizes":[],"default_left":[0,0,0,0,0,0,0,0,0,0,0,0,0,0,0,0,0,0,0,0,0,0,0,0,0,0,0,0,0,0,0,0,0,0,0,0,0,0,0,0,0,0,0,0,0,0,0,0,0,0,0,0,0,0,0,0,0,0,0,0,0,0,0,0,0,0,0,0,0],"id":16,"left_children":[1,3,5,7,9,11,-1,13,15,17,-1,19,21,23,25,27,29,31,33,35,-1,37,39,41,43,45,-1,47,49,51,-1,53,55,57,59,61,63,65,-1,67,-1,-1,-1,-1,-1,-1,-1,-1,-1,-1,-1,-1,-1,-1,-1,-1,-1,-1,-1,-1,-1,-1,-1,-1,-1,-1,-1,-1,-1],"loss_changes":[7.1946484E2,9.950578E1,4.3001923E1,1.0638611E1,3.6396652E1,1.6031693E1,0E0,1.0874939E0,1.7526077E1,4.90476E1,0E0,1.0886875E1,1.1804863E1,1.4127045E0,4.59826E0,1.1766263E1,6.2425995E0,1.7324766E1,1.0903572E1,1.0309761E1,0E0,5.5752563E-1,2.3362846E0,7.384491E-1,3.1568432E0,4.76502E0,0E0,1.0564898E1,4.23569E0,8.1601715E-1,0E0,1.787984E1,4.868412E0,4.065529E0,1.0308065E1,1.2228357E1,1.2003519E1,2.1672192E0,0E0,9.394932E-2,0E0,0E0,0E0,0E0,0E0,0E0,0E0,0E0,0E0,0E0,0E0,0E0,0E0,0E0,0E0,0E0,0E0,0E0,0E0,0E0,0E0,0E0,0E0,0E0,0E0,0E0,0E0,0E0,0E0],"parents":[2147483647,0,0,1,1,2,2,3,3,4,4,5,5,7,7,8,8,9,9,11,11,12,12,13,13,14,14,15,15,16,16,17,17,18,18,19,19,21,21,22,22,23,23,24,24,25,25,27,27,28,28,29,29,31,31,32,32,33,33,34,34,35,35,36,36,37,37,39,39],"right_children":[2,4,6,8,10,12,-1,14,16,18,-1,20,22,24,26,28,30,32,34,36,-1,38,40,42,44,46,-1,48,50,52,-1,54,56,58,60,62,64,66,-1,68,-1,-1,-1,-1,-1,-1,-1,-1,-1,-1,-1,-1,-1,-1,-1,-1,-1,-1,-1,-1,-1,-1,-1,-1,-1,-1,-1,-1,-1],"split_conditions":[6.3E1,1.668E3,1.3E1,5E0,4.225352E-2,2E0,7.98574E-2,8E0,1E0,1.4E1,-4.869758E-2,8.33956E-4,3E0,1.08802E-4,3.0690538E-2,1.24122E-4,4.98891E-3,1E0,1.36833E-6,1E0,1.3855287E-1,3E0,3E0,3.957E3,2.2E1,3E0,-4.4791613E-2,2E0,4.38633E-4,2.404E3,4.755714E-2,3.5E1,4.388371E-3,1E0,1.84547E-4,1E0,3E0,3.536E3,1.4422095E-1,3.4083163E-3,-3.243325E-2,-4.7060113E-2,-3.3688769E-3,3.439236E-2,-3.864857E-2,-3.1730097E-2,6.655052E-2,-2.5408208E-2,2.0192707E-2,1.22353934E-1,-1.5596126E-3,-2.8360114E-2,-4.891688E-2,-1.0724613E-2,4.0183622E-2,-2.8985133E-2,4.261003E-2,2.0243648E-2,9.963386E-2,-2.8648296E-2,7.1288005E-2,1.0277455E-1,1.4841962E-2,-7.6931464E-3,4.3985907E-2,8.813198E-2,6.9463043E-3,4.2011987E-2,9.3943495E-3],"split_indices":[4,5,6,1,8,23,0,6,21,6,0,35,25,31,8,33,32,21,26,25,0,23,23,0,4,25,0,23,33,2,0,4,8,24,29,23,25,0,0,8,0,0,0,0,0,0,0,0,0,0,0,0,0,0,0,0,0,0,0,0,0,0,0,0,0,0,0,0,0],"split_type":[0,0,0,0,0,0,0,0,0,0,0,0,0,0,0,0,0,0,0,0,0,0,0,0,0,0,0,0,0,0,0,0,0,0,0,0,0,0,0,0,0,0,0,0,0,0,0,0,0,0,0,0,0,0,0,0,0,0,0,0,0,0,0,0,0,0,0,0,0],"sum_hessian":[9.558834E2,6.854616E2,2.7042178E2,5.220414E2,1.6342021E2,7.8269905E1,1.9215189E2,3.0483237E2,2.1720901E2,1.3787228E2,2.5547932E1,6.629409E1,1.1975814E1,2.9393884E2,1.0893524E1,1.13831825E2,1.0337719E2,1.0918597E2,2.8686316E1,6.522162E1,1.0724688E0,8.499908E0,3.475906E0,2.8935822E2,4.5806317E0,3.081897E0,7.811627E0,1.1179894E2,2.0328872E0,1.0236755E2,1.0096349E0,6.736421E1,4.1821762E1,2.0183033E1,8.5032835E0,1.5738949E1,4.948267E1,4.822887E0,3.6770213E0,2.087224E0,1.3886819E0,2.882271E2,1.1311187E0,1.3598808E0,3.220751E0,1.5643333E0,1.5175638E0,9.7984955E1,1.381399E1,1.0246836E0,1.0082035E0,1.0251514E1,9.2116035E1,3.3153667E1,3.421054E1,4.0165E1,1.6567584E0,2.4060097E0,1.7777023E1,4.457119E0,4.0461645E0,6.449418E0,9.289531E0,3.3826767E1,1.5655905E1,3.6004586E0,1.2224283E0,1.0012062E0,1.0860178E0],"tree_param":{"num_deleted":"0","num_feature":"37","num_nodes":"69","size_leaf_vector":"1"}},{"base_weights":[-6.286124E-2,-5.991269E-1,1.2641362E0,-8.1065416E-1,6.327672E-2,6.514704E-1,1.5307872E0,-9.0467834E-1,-5.2299607E-1,4.5301858E-1,-5.060203E-1,8.930898E-1,-3.7609976E-2,9.015414E-1,7.804065E-2,-9.1164774E-1,-5.249235E-2,-2.5656587E-1,-8.655689E-1,8.7744886E-1,-9.554599E-2,-7.610855E-1,-4.2607717E-2,1.1392963E0,2.6715988E-1,-3.8987222E-1,9.679026E-1,1.1900561E0,-3.059277E-2,-8.385049E-1,-9.827261E-1,-3.3438932E-2,3.9718755E-2,-8.334394E-1,1.0502643E-1,-9.456591E-1,-4.2103186E-1,4.6115956E-1,1.8925385E0,6.064201E-1,-4.2857704E-1,-8.024306E-1,2.2257168E-2,5.1295847E-1,-4.5504786E-2,5.5525106E-1,1.5823758E0,8.898353E-2,9.748713E-3,-5.7457733E-1,5.293713E-2,1.4693396E0,-2.907956E-2,1.4278314E0,3.327342E-1,-4.4938285E-2,-2.9402515E-2,-4.993305E-2,-1.4374042E-2,-4.3183222E-2,-6.4913946E-4,4.3606203E-2,-1.4820847E-2,-4.828334E-2,-1.4563379E-3,7.0608505E-3,-4.210029E-2,3.961163E-3,6.2112242E-2,1.0698326E-1,1.4251203E-3,-3.0023983E-4,9.259278E-2,-3.2619923E-2,1.8405702E-2,-4.3648712E-2,-2.0692363E-2,7.719624E-2,4.7795004E-3,8.1298025E-3,1.1814816E-1,7.04962E-3,8.9455076E-2,-1.7298382E-2,4.9979147E-2,-3.539111E-2,1.2837373E-2,1.2641131E-2,1.0663026E-1,7.939889E-2,1.21304495E-2,3.4332544E-2,-7.1557746E-3],"categories":[],"categories_nodes":[],"categories_segments":[],"categories_sizes":[],"default_left":[0,0,0,0,0,0,0,0,0,0,0,0,0,0,0,0,0,0,0,0,0,0,0,0,0,0,0,0,0,0,0,0,0,0,0,0,0,0,0,0,0,0,0,0,0,0,0,0,0,0,0,0,0,0,0,0,0,0,0,0,0,0,0,0,0,0,0,0,0,0,0,0,0,0,0,0,0,0,0,0,0,0,0,0,0,0,0,0,0,0,0,0,0],"id":17,"left_children":[1,3,5,7,9,11,13,15,17,19,21,23,25,27,-1,29,31,33,35,37,39,41,43,45,47,49,51,53,-1,55,57,-1,-1,59,61,63,65,67,69,71,73,75,-1,77,-1,79,81,-1,83,85,-1,87,-1,89,91,-1,-1,-1,-1,-1,-1,-1,-1,-1,-1,-1,-1,-1,-1,-1,-1,-1,-1,-1,-1,-1,-1,-1,-1,-1,-1,-1,-1,-1,-1,-1,-1,-1,-1,-1,-1,-1,-1],"loss_changes":[6.645109E2,9.3223236E1,4.2911316E1,1.3160767E1,3.6145996E1,1.3893505E1,2.1170044E0,2.2003784E0,1.1328121E1,2.2579363E1,7.7991314E0,9.200127E0,8.372064E0,5.471138E0,0E0,1.1276245E0,2.6876814E0,1.523263E1,1.5579338E0,2.218734E1,1.0323497E1,2.4855042E0,1.231354E1,1.0496529E1,7.26993E0,5.2714653E0,5.6274686E0,1.4539137E0,0E0,2.3666992E0,1.7577667E0,0E0,0E0,6.853008E-1,1.4275876E1,8.108444E-1,2.5307884E0,1.1841202E1,7.1015816E0,1.0892023E1,5.550837E0,7.79562E-1,0E0,6.5752945E0,0E0,1.4168785E1,7.0344467E0,0E0,6.3317013E0,1.9657135E0,0E0,3.4343767E0,0E0,9.632149E-1,6.6387594E-1,0E0,0E0,0E0,0E0,0E0,0E0,0E0,0E0,0E0,0E0,0E0,0E0,0E0,0E0,0E0,0E0,0E0,0E0,0E0,0E0,0E0,0E0,0E0,0E0,0E0,0E0,0E0,0E0,0E0,0E0,0E0,0E0,0E0,0E0,0E0,0E0,0E0,0E0],"parents":[2147483647,0,0,1,1,2,2,3,3,4,4,5,5,6,6,7,7,8,8,9,9,10,10,11,11,12,12,13,13,15,15,16,16,17,17,18,18,19,19,20,20,21,21,22,22,23,23,24,24,25,25,26,26,27,27,29,29,30,30,33,33,34,34,35,35,36,36,37,37,38,38,39,39,40,40,41,41,43,43,45,45,46,46,48,48,49,49,51,51,53,53,54,54],"right_children":[2,4,6,8,10,12,14,16,18,20,22,24,26,28,-1,30,32,34,36,38,40,42,44,46,48,50,52,54,-1,56,58,-1,-1,60,62,64,66,68,70,72,74,76,-1,78,-1,80,82,-1,84,86,-1,88,-1,90,92,-1,-1,-1,-1,-1,-1,-1,-1,-1,-1,-1,-1,-1,-1,-1,-1,-1,-1,-1,-1,-1,-1,-1,-1,-1,-1,-1,-1,-1,-1,-1,-1,-1,-1,-1,-1,-1,-1],"split_conditions":[6.3E1,1.12E3,1.3E1,3.2E1,1E0,1E0,1.5E1,1E0,1E0,0E0,4.2607584E-3,3E0,3E0,1E0,7.804065E-2,1E0,2E0,2.497E3,3E0,1.1E1,2E0,2.58038E-5,1.28E2,1E0,2E0,6.6350712E-3,4E0,3E0,-3.059277E-2,3.883E3,3.097E3,-3.3438932E-2,3.9718755E-2,6.16143E-5,2E0,1.40441E-3,4E0,3.402E3,1E0,1.87203E-5,2.3E1,3E0,2.2257168E-2,1E0,-4.5504786E-2,3E0,9E0,8.898353E-2,1.79859E-6,2.98739E-5,5.293713E-2,2E0,-2.907956E-2,4.565E3,3.171E3,-4.4938285E-2,-2.9402515E-2,-4.993305E-2,-1.4374042E-2,-4.3183222E-2,-6.4913946E-4,4.3606203E-2,-1.4820847E-2,-4.828334E-2,-1.4563379E-3,7.0608505E-3,-4.210029E-2,3.961163E-3,6.2112242E-2,1.0698326E-1,1.4251203E-3,-3.0023983E-4,9.259278E-2,-3.2619923E-2,1.8405702E-2,-4.3648712E-2,-2.0692363E-2,7.719624E-2,4.7795004E-3,8.1298025E-3,1.1814816E-1,7.04962E-3,8.9455076E-2,-1.7298382E-2,4.9979147E-2,-3.539111E-2,1.2837373E-2,1.2641131E-2,1.0663026E-1,7.939889E-2,1.21304495E-2,3.4332544E-2,-7.1557746E-3],"split_indices":[4,7,6,4,21,21,1,9,21,26,8,24,21,21,0,21,21,2,21,6,24,32,6,23,22,3,21,24,0,0,5,0,0,29,25,29,21,2,19,32,6,21,0,25,0,25,1,0,33,29,0,24,0,0,0,0,0,0,0,0,0,0,0,0,0,0,0,0,0,0,0,0,0,0,0,0,0,0,0,0,0,0,0,0,0,0,0,0,0,0,0,0,0],"split_type":[0,0,0,0,0,0,0,0,0,0,0,0,0,0,0,0,0,0,0,0,0,0,0,0,0,0,0,0,0,0,0,0,0,0,0,0,0,0,0,0,0,0,0,0,0,0,0,0,0,0,0,0,0,0,0,0,0,0,0,0,0,0,0,0,0,0,0,0,0,0,0,0,0,0,0,0,0,0,0,0,0,0,0,0,0,0,0,0,0,0,0,0,0],"sum_hessian":[9.317318E2,6.6396075E2,2.6777103E2,5.0308527E2,1.6087552E2,8.2245155E1,1.8552588E2,3.775379E2,1.2554735E2,9.561889E1,6.525662E1,6.067425E1,2.15709E1,9.862556E0,1.7566331E2,3.7440613E2,3.1317644E0,7.160596E1,5.3941395E1,5.3570942E1,4.2047947E1,4.167571E1,2.3580917E1,4.295711E1,1.7717142E1,1.6427946E1,5.142954E0,8.462848E0,1.3997089E0,1.9083008E2,1.8357607E2,1.9343681E0,1.1973962E0,2.7087095E1,4.451886E1,4.4751434E1,9.189958E0,3.90222E1,1.454874E1,1.3265623E1,2.8782322E1,4.0618225E1,1.057484E0,1.4623962E1,8.956954E0,1.9502739E1,2.3454372E1,1.7166469E0,1.6000496E1,1.510531E1,1.3226361E0,3.9246225E0,1.2183312E0,6.1043663E0,2.3584812E0,1.5173358E2,3.9096497E1,1.7903616E2,4.539901E0,2.6073889E1,1.0132061E0,1.4891321E1,2.9627537E1,4.374293E1,1.008506E0,4.2192774E0,4.9706807E0,2.6947027E1,1.2075172E1,1.271515E1,1.8335912E0,9.559873E0,3.7057505E0,2.2611101E1,6.171221E0,3.3322323E1,7.295903E0,3.4363773E0,1.1187586E1,1.6917925E1,2.5848145E0,3.1529105E0,2.0301462E1,1.2249041E1,3.751454E0,1.3146713E1,1.9585966E0,1.8721074E0,2.0525153E0,5.0783668E0,1.0259995E0,1.0984796E0,1.2600015E0],"tree_param":{"num_deleted":"0","num_feature":"37","num_nodes":"93","size_leaf_vector":"1"}},{"base_weights":[-3.9331775E-2,-5.71494E-1,1.2201762E0,-6.81054E-1,6.091813E-1,5.958859E-1,1.4766387E0,-8.190318E-1,-3.5157186E-1,-4.1674048E-1,9.11262E-1,5.1770616E-1,1.4640418E-1,7.8659546E-1,1.5090368E0,-8.80181E-1,-4.6448162E-1,-5.9710022E-2,-8.0838233E-1,-6.2856466E-1,2.3026118E-1,1.1014512E0,-4.031275E-2,7.375889E-1,-9.365611E-2,1.0233477E0,-1.1064629E-2,1.5141662E0,1.5019841E-2,-7.8708065E-1,-4.8974328E-2,-1.2423495E-2,-4.887894E-2,-2.346133E-1,9.999808E-1,-8.866598E-1,2.6897532E-1,-8.005634E-1,2.3271907E-2,-3.0225772E-2,4.728016E-2,6.9585615E-1,1.8038694E0,9.7467065E-1,1.2964427E-1,-5.2757007E-1,1.0232097E0,1.1966813E0,-6.9142855E-3,1.110651E0,7.69953E-2,-4.3800917E-2,-2.7627995E-2,-8.265472E-3,8.433532E-2,-2.727778E-2,8.31493E-3,1.4398508E-2,2.419399E-1,-4.7727667E-2,-2.5800047E-2,8.02866E-2,-2.6777793E-2,-2.2542316E-3,-4.467367E-2,7.546778E-2,1.07307695E-2,1.04399614E-1,-1.7493848E-2,7.602891E-2,1.395793E-2,1.9619592E-2,-4.1027233E-2,-3.6402777E-2,4.358516E-2,8.0365404E-2,-3.1234747E-2,1.2223252E-2,6.518613E-2,7.812714E-2,-1.622761E-2],"categories":[],"categories_nodes":[],"categories_segments":[],"categories_sizes":[],"default_left":[0,0,0,0,0,0,0,0,0,0,0,0,0,0,0,0,0,0,0,0,0,0,0,0,0,0,0,0,0,0,0,0,0,0,0,0,0,0,0,0,0,0,0,0,0,0,0,0,0,0,0,0,0,0,0,0,0,0,0,0,0,0,0,0,0,0,0,0,0,0,0,0,0,0,0,0,0,0,0,0,0],"id":18,"left_children":[1,3,5,7,9,11,13,15,17,19,21,23,-1,25,27,29,31,33,35,37,39,41,-1,43,45,47,-1,49,-1,51,-1,53,-1,55,57,59,61,63,-1,-1,-1,65,67,69,71,73,75,77,-1,79,-1,-1,-1,-1,-1,-1,-1,-1,-1,-1,-1,-1,-1,-1,-1,-1,-1,-1,-1,-1,-1,-1,-1,-1,-1,-1,-1,-1,-1,-1,-1],"loss_changes":[6.1692993E2,8.410658E1,4.289276E1,2.6649048E1,1.7569641E1,1.3304955E1,3.130188E0,8.629303E0,2.3503042E1,1.9679594E0,1.4987652E1,1.0805027E1,0E0,2.7913632E0,6.819153E-1,2.506012E0,1.4702845E1,2.0411404E1,6.0391884E0,2.3088946E0,2.9680374E0,9.936451E0,0E0,8.355961E0,1.1207887E1,1.9538918E0,0E0,1.8356323E-1,0E0,3.4377518E0,0E0,9.303126E0,0E0,1.1839895E1,4.1279396E1,1.127018E0,6.695769E0,6.096811E-1,0E0,0E0,0E0,1.00628195E1,9.145695E0,1.5592972E1,4.7321377E0,5.2672615E0,7.2601385E0,4.7961426E-1,0E0,9.924877E0,0E0,0E0,0E0,0E0,0E0,0E0,0E0,0E0,0E0,0E0,0E0,0E0,0E0,0E0,0E0,0E0,0E0,0E0,0E0,0E0,0E0,0E0,0E0,0E0,0E0,0E0,0E0,0E0,0E0,0E0,0E0],"parents":[2147483647,0,0,1,1,2,2,3,3,4,4,5,5,6,6,7,7,8,8,9,9,10,10,11,11,13,13,14,14,15,15,16,16,17,17,18,18,19,19,20,20,21,21,23,23,24,24,25,25,27,27,29,29,31,31,33,33,34,34,35,35,36,36,37,37,41,41,42,42,43,43,44,44,45,45,46,46,47,47,49,49],"right_children":[2,4,6,8,10,12,14,16,18,20,22,24,-1,26,28,30,32,34,36,38,40,42,-1,44,46,48,-1,50,-1,52,-1,54,-1,56,58,60,62,64,-1,-1,-1,66,68,70,72,74,76,78,-1,80,-1,-1,-1,-1,-1,-1,-1,-1,-1,-1,-1,-1,-1,-1,-1,-1,-1,-1,-1,-1,-1,-1,-1,-1,-1,-1,-1,-1,-1,-1,-1],"split_conditions":[6.3E1,1E0,1.3E1,3.2E1,9E0,3.29914E-3,1.5E1,7E0,1E0,4.287245E-3,4.225352E-2,1E0,1.4640418E-1,1E0,4E0,1E0,6.0189166E-3,2E0,2.51902E-5,1.08165E-5,1.121E3,8.3234245E-3,-4.031275E-2,3E0,3E0,6.4304E-6,-1.1064629E-2,4.1597337E-3,1.5019841E-2,5E0,-4.8974328E-2,1.3E1,-4.887894E-2,7E0,2E0,3E0,2E0,3.1578948E-3,2.3271907E-2,-3.0225772E-2,4.728016E-2,2E0,3E0,3E0,2.51902E-5,6.6350712E-3,4E0,3.8022813E-3,-6.9142855E-3,2.51902E-5,7.69953E-2,-4.3800917E-2,-2.7627995E-2,-8.265472E-3,8.433532E-2,-2.727778E-2,8.31493E-3,1.4398508E-2,2.419399E-1,-4.7727667E-2,-2.5800047E-2,8.02866E-2,-2.6777793E-2,-2.2542316E-3,-4.467367E-2,7.546778E-2,1.07307695E-2,1.04399614E-1,-1.7493848E-2,7.602891E-2,1.395793E-2,1.9619592E-2,-4.1027233E-2,-3.6402777E-2,4.358516E-2,8.0365404E-2,-3.1234747E-2,1.2223252E-2,6.518613E-2,7.812714E-2,-1.622761E-2],"split_indices":[4,9,6,4,6,35,1,6,21,3,8,21,0,21,21,21,8,23,31,33,2,8,0,24,21,33,0,8,0,1,0,6,0,1,22,21,24,8,0,0,0,25,23,22,28,3,21,8,0,28,0,0,0,0,0,0,0,0,0,0,0,0,0,0,0,0,0,0,0,0,0,0,0,0,0,0,0,0,0,0,0],"split_type":[0,0,0,0,0,0,0,0,0,0,0,0,0,0,0,0,0,0,0,0,0,0,0,0,0,0,0,0,0,0,0,0,0,0,0,0,0,0,0,0,0,0,0,0,0,0,0,0,0,0,0,0,0,0,0,0,0,0,0,0,0,0,0,0,0,0,0,0,0,0,0,0,0,0,0,0,0,0,0,0,0],"sum_hessian":[9.1838983E2,6.459935E2,2.723963E2,5.9152637E2,5.4467125E1,8.028561E1,1.921107E2,4.1588123E2,1.7564514E2,1.2303296E1,4.216383E1,7.886392E1,1.4216859E0,9.748916E0,1.8236179E2,3.5344083E2,6.2440422E1,1.0786169E2,6.778345E1,9.29023E0,3.0130656E0,3.8283234E1,3.8805964E0,5.7850815E1,2.1013105E1,7.882081E0,1.8668345E0,1.813394E2,1.0223926E0,1.8702655E2,1.6641428E2,3.3739155E1,2.8701265E1,9.324937E1,1.4612321E1,6.3357124E1,4.4263263E0,8.259846E0,1.0303847E0,1.4619521E0,1.5511136E0,2.5531387E1,1.2751846E1,4.1186127E1,1.6664686E1,1.5513559E1,5.4995456E0,6.8324094E0,1.0496715E0,1.3521099E1,1.678183E2,1.3361874E2,5.3407803E1,3.178214E1,1.9570149E0,5.2314278E1,4.0935093E1,1.3232937E1,1.3793844E0,5.2217216E1,1.113991E1,1.288905E0,3.1374214E0,1.0672193E0,7.1926265E0,8.695666E0,1.683572E1,1.1292646E1,1.4591993E0,2.2410135E1,1.8775993E1,1.3514639E1,3.1500483E0,1.3988939E1,1.5246207E0,4.0785446E0,1.4210012E0,1.0222781E0,5.8101315E0,1.0215801E1,3.305298E0],"tree_param":{"num_deleted":"0","num_feature":"37","num_nodes":"81","size_leaf_vector":"1"}},{"base_weights":[-5.6414217E-2,-5.364655E-1,1.232624E0,-7.8579277E-1,7.95447E-2,2.3153654E-1,1.3961076E0,-8.066848E-1,7.959085E-1,3.8894078E-1,-4.59117E-1,-3.0562764E-1,6.701325E-1,1.016694E0,7.570326E-2,-6.838484E-1,-9.437504E-1,-3.5845152E-1,2.252952E0,8.83582E-1,3.298792E-2,-7.087844E-1,3.0929364E-2,-4.9511778E-1,5.015592E-2,1.0494553E0,-1.9268598E-1,1.3851819E0,7.171708E-1,-8.831754E-1,-4.0025046E-1,-9.614505E-1,-9.853892E-2,-3.5325095E-2,1.52709065E-2,2.3348408E-2,1.4558206E-1,2.3300041E-1,1.215201E0,-7.375316E-2,1.1769149E0,-7.691952E-1,-1.8813945E-1,1.374774E0,-4.1593567E-1,7.865867E-3,-7.302388E-1,1.8576676E0,5.809501E-1,-4.9915797E-1,4.0028848E-2,5.3198002E-2,1.5614309E0,1.0641581E0,-5.4472614E-2,-4.4808786E-2,1.6194962E-2,-2.6067663E-2,1.9398278E-2,-4.874628E-2,-2.5810563E-4,7.13775E-2,-3.913602E-2,-1.9040952E-2,3.139698E-2,7.4339785E-2,-2.816652E-3,-1.1823135E-2,3.548924E-2,8.6295076E-2,1.592865E-2,-4.191565E-2,4.8118155E-2,6.723104E-2,-4.0318146E-2,8.701845E-2,-5.5650626E-3,7.692478E-3,-4.5186006E-2,3.1994443E-2,-3.492666E-2,-1.8664462E-3,-4.0306743E-2,1.333908E-2,1.1722751E-1,-2.140804E-2,5.8134418E-2,7.424691E-3,-4.1840073E-2,2.4645103E-2,-2.0095093E-2,8.648529E-2,8.389478E-3,6.1372455E-2,-3.7907403E-2,-3.4496836E-2,2.6127918E-2],"categories":[],"categories_nodes":[],"categories_segments":[],"categories_sizes":[],"default_left":[0,0,0,0,0,0,0,0,0,0,0,0,0,0,0,0,0,0,0,0,0,0,0,0,0,0,0,0,0,0,0,0,0,0,0,0,0,0,0,0,0,0,0,0,0,0,0,0,0,0,0,0,0,0,0,0,0,0,0,0,0,0,0,0,0,0,0,0,0,0,0,0,0,0,0,0,0,0,0,0,0,0,0,0,0,0,0,0,0,0,0,0,0,0,0,0,0],"id":19,"left_children":[1,3,5,7,9,11,13,15,17,19,21,23,25,27,-1,29,31,33,35,37,39,41,43,45,-1,47,49,51,53,55,57,59,61,-1,-1,-1,-1,63,65,67,69,71,73,75,77,79,81,83,85,87,-1,89,91,93,95,-1,-1,-1,-1,-1,-1,-1,-1,-1,-1,-1,-1,-1,-1,-1,-1,-1,-1,-1,-1,-1,-1,-1,-1,-1,-1,-1,-1,-1,-1,-1,-1,-1,-1,-1,-1,-1,-1,-1,-1,-1,-1],"loss_changes":[5.518343E2,9.984952E1,3.928293E1,1.592865E1,3.152825E1,8.49105E0,7.762024E0,7.050049E0,1.179743E1,2.1102776E1,8.474384E0,4.5875516E0,6.6416464E0,4.782673E0,0E0,1.3477715E1,3.0976562E0,1.2574898E0,2.1996765E0,1.05444565E1,8.7358885E0,1.2961063E0,1.5149798E1,1.7890289E0,0E0,4.1544914E0,2.4857938E0,5.1736336E0,8.342639E0,2.5320282E0,1.001683E1,2.6868286E0,6.8509226E0,0E0,0E0,0E0,0E0,4.6467834E0,1.1481831E1,8.547611E0,2.3266964E0,5.680546E0,6.8517146E0,3.6111765E0,5.4157276E0,3.0332148E0,5.108576E-1,2.9507895E0,6.488469E0,1.4042192E0,0E0,9.288818E-1,4.339054E0,7.29632E0,4.2287064E0,0E0,0E0,0E0,0E0,0E0,0E0,0E0,0E0,0E0,0E0,0E0,0E0,0E0,0E0,0E0,0E0,0E0,0E0,0E0,0E0,0E0,0E0,0E0,0E0,0E0,0E0,0E0,0E0,0E0,0E0,0E0,0E0,0E0,0E0,0E0,0E0,0E0,0E0,0E0,0E0,0E0,0E0],"parents":[2147483647,0,0,1,1,2,2,3,3,4,4,5,5,6,6,7,7,8,8,9,9,10,10,11,11,12,12,13,13,15,15,16,16,17,17,18,18,19,19,20,20,21,21,22,22,23,23,25,25,26,26,27,27,28,28,29,29,30,30,31,31,32,32,37,37,38,38,39,39,40,40,41,41,42,42,43,43,44,44,45,45,46,46,47,47,48,48,49,49,51,51,52,52,53,53,54,54],"right_children":[2,4,6,8,10,12,14,16,18,20,22,24,26,28,-1,30,32,34,36,38,40,42,44,46,-1,48,50,52,54,56,58,60,62,-1,-1,-1,-1,64,66,68,70,72,74,76,78,80,82,84,86,88,-1,90,92,94,96,-1,-1,-1,-1,-1,-1,-1,-1,-1,-1,-1,-1,-1,-1,-1,-1,-1,-1,-1,-1,-1,-1,-1,-1,-1,-1,-1,-1,-1,-1,-1,-1,-1,-1,-1,-1,-1,-1,-1,-1,-1,-1],"split_conditions":[1.1E1,1.12E3,1.1E1,6.44176E-4,1E0,2.1063718E-3,1.6E1,1E0,4.211E3,2E0,1E0,2E0,6.84245E-7,2E0,7.570326E-2,5E0,3.097E3,5.06867E-3,1.26807E-3,8E0,4.460303E-3,1E0,1E0,2E0,5.015592E-2,1E0,8.12159E-5,2.2922636E-3,3E0,3.851E3,